\data\
ngram 1=62
ngram 2=3721

\1-grams:
-99 <unk>
0 aa -99.000000
0 ae -99.000000
0 ah -99.000000
0 ao -99.000000
0 aw -99.000000
0 ax -99.000000
0 axh -99.000000
0 axr -99.000000
0 ay -99.000000
0 b -99.000000
0 bcl -99.000000
0 ch -99.000000
0 d -99.000000
0 dcl -99.000000
0 dh -99.000000
0 dx -99.000000
0 eh -99.000000
0 el -99.000000
0 em -99.000000
0 en -99.000000
0 eng -99.000000
0 epi -99.000000
0 er -99.000000
0 ey -99.000000
0 f -99.000000
0 g -99.000000
0 gcl -99.000000
0 h# -99.000000
0 hh -99.000000
0 hv -99.000000
0 ih -99.000000
0 ix -99.000000
0 iy -99.000000
0 jh -99.000000
0 k -99.000000
0 kcl -99.000000
0 l -99.000000
0 m -99.000000
0 n -99.000000
0 ng -99.000000
0 nx -99.000000
0 ow -99.000000
0 oy -99.000000
0 p -99.000000
0 pau -99.000000
0 pcl -99.000000
0 q -99.000000
0 r -99.000000
0 s -99.000000
0 sh -99.000000
0 t -99.000000
0 tcl -99.000000
0 th -99.000000
0 uh -99.000000
0 uw -99.000000
0 ux -99.000000
0 v -99.000000
0 w -99.000000
0 y -99.000000
0 z -99.000000
0 zh -99.000000

\2-grams:
-3.33538162102 aa aa
-3.3310386762 aa ae
-3.33538162102 aa ah
-2.95754542176 aa ao
-3.82613438557 aa aw
-2.95754542176 aa ax
-4.13882641254 aa axh
-2.2583313059 aa axr
-3.65241659281 aa ay
-3.35275340029 aa b
-1.44620062474 aa bcl
-3.77401904774 aa ch
-3.30498100728 aa d
-1.31156933535 aa dcl
-2.42336320902 aa dh
-1.23339632861 aa dx
-3.17469266271 aa eh
-3.71321782027 aa el
-4.59483561854 aa em
-3.89127855785 aa en
-5.27667795512 aa eng
-3.17903560753 aa epi
-2.61445278106 aa er
-3.33538162102 aa ey
-1.85443743773 aa f
-3.61333008944 aa g
-1.94563927893 aa gcl
-3.65241659281 aa h#
-3.17903560753 aa hh
-2.61445278106 aa hv
-3.06177609742 aa ih
-3.17903560753 aa ix
-3.65241659281 aa iy
-3.68281720654 aa jh
-3.10954849043 aa k
-1.12482270813 aa kcl
-1.0944220944 aa l
-1.21168160451 aa m
-1.13350859777 aa n
-2.29307486445 aa ng
-1.70677731388 aa nx
-3.65241659281 aa ow
-4.20831352964 aa oy
-3.27892333837 aa p
-3.65241659281 aa pau
-1.22036749415 aa pcl
-1.66769081051 aa q
-0.586297550569 aa r
-1.40711412137 aa s
-2.13672885096 aa sh
-3.09217671115 aa t
-1.10310798403 aa tcl
-2.95754542176 aa th
-3.99116628869 aa uh
-3.96510861978 aa uw
-3.53515708269 aa ux
-2.08461351314 aa v
-2.70131167744 aa w
-2.70131167744 aa y
-2.11067118205 aa z
-2.61445278106 aa zh
-3.51778530342 ae aa
-3.5134423586 ae ae
-3.18337855235 ae ah
-3.60030125498 ae ao
-4.00853806797 ae aw
-2.81422824273 ae ax
-4.32123009494 ae axh
-2.70565462226 ae axr
-3.58727242052 ae ay
-3.53515708269 ae b
-1.57214602449 ae bcl
-3.66110248244 ae ch
-3.48738468968 ae d
-1.42448590064 ae dcl
-2.70565462226 ae dh
-1.23339632861 ae dx
-3.66110248244 ae eh
-3.89562150267 ae el
-4.77723930094 ae em
-3.66110248244 ae en
-5.45908163752 ae eng
-3.66110248244 ae epi
-3.64373070317 ae er
-3.51778530342 ae ey
-1.26813988716 ae f
-3.79573377183 ae g
-1.48094418329 ae gcl
-3.30498100728 ae h#
-3.89996444749 ae hh
-4.01288101279 ae hv
-3.24417977982 ae ih
-3.00531781477 ae ix
-3.20509327645 ae iy
-3.86522088894 ae jh
-3.66110248244 ae k
-0.951104915368 ae kcl
-1.19865277005 ae l
-1.15088037704 ae m
-0.751329453693 ae n
-1.54608835558 ae ng
-1.5070018522 ae nx
-3.65241659281 ae ow
-4.39071721204 ae oy
-3.46132702077 ae p
-3.66110248244 ae pau
-1.46357240401 ae pcl
-2.02815523049 ae q
-2.43204909866 ae r
-1.18996688041 ae s
-1.58517485895 ae sh
-3.27458039355 ae t
-1.19430982523 ae tcl
-1.97169694784 ae th
-4.17356997109 ae uh
-4.14751230218 ae uw
-3.71756076509 ae ux
-1.38539939727 ae v
-3.18337855235 ae w
-2.14107179578 ae y
-1.55043130039 ae z
-2.61879572588 ae zh
-3.39183982306 ah aa
-3.38749687824 ah ae
-3.39183982306 ah ah
-3.47435577462 ah ao
-3.88259258761 ah aw
-3.1964073062 ah ax
-4.19528461458 ah axh
-3.65675945702 ah axr
-3.46132694016 ah ay
-3.40921160234 ah b
-1.38539931667 ah bcl
-3.83047724978 ah ch
-3.36143920933 ah d
-1.59386066798 ah dcl
-1.37671342703 ah dh
-1.33328397884 ah dx
-3.23115086476 ah eh
-3.76967602232 ah el
-4.65129382058 ah em
-3.65675945702 ah en
-3.65675945702 ah eng
-2.95754534116 ah epi
-3.65675945702 ah er
-3.65675945702 ah ey
-1.6199183369 ah f
-3.66978829148 ah g
-1.69809134364 ah gcl
-2.19318705301 ah h#
-2.33216128722 ah hh
-2.25833122529 ah hv
-3.65675945702 ah ih
-2.95754534116 ah ix
-3.07914779609 ah iy
-3.65675945702 ah jh
-3.16600669247 ah k
-1.54608827497 ah kcl
-1.29854042029 ah l
-1.00756311741 ah m
-0.794758821279 ah n
-1.40711404076 ah ng
-1.58083183352 ah nx
-3.52647111245 ah ow
-4.26477173169 ah oy
-3.33538154041 ah p
-2.25833122529 ah pau
-1.27248275137 ah pcl
-1.77192140556 ah q
-2.13672877036 ah r
-1.12047968271 ah s
-1.7806072952 ah sh
-3.14863491319 ah t
-1.12482262753 ah tcl
-1.80666496411 ah th
-4.04762449073 ah uh
-4.02156682182 ah uw
-3.59161528474 ah ux
-1.233396248 ah v
-2.47982141106 ah w
-2.80988521731 ah y
-1.42882876486 ah z
-2.70131159683 ah zh
-3.56990064124 ao aa
-3.03137548368 ao ae
-2.87068652538 ao ah
-3.11823438007 ao ao
-3.56990064124 ao aw
-2.5319368295 ao ax
-3.83916322002 ao axh
-1.56780307967 ao axr
-3.10520554561 ao ay
-3.05309020778 ao b
-2.11067118205 ao bcl
-3.47435585523 ao ch
-3.00531781477 ao d
-1.95866811338 ao dcl
-2.39730554011 ao dh
-1.43317179028 ao dx
-3.56990064124 ao eh
-3.41355462776 ao el
-4.29517242602 ao em
-3.56990064124 ao en
-4.97701476261 ao eng
-3.56990064124 ao epi
-2.39730554011 ao er
-2.87068652538 ao ey
-1.26813988716 ao f
-3.31366689692 ao g
-1.78495032062 ao gcl
-3.56990064124 ao h#
-3.41789757258 ao hh
-2.72736934635 ao hv
-2.87068652538 ao ih
-2.0542128994 ao ix
-2.5319368295 ao iy
-3.38315401403 ao jh
-2.80988529791 ao k
-1.74586381725 ao kcl
-0.868588963807 ao l
-2.17581535434 ao m
-1.25076810788 ao n
-1.30722639053 ao ng
-2.0542128994 ao nx
-3.17034971789 ao ow
-3.90865033713 ao oy
-2.97926014586 ao p
-3.09651965597 ao pau
-2.17581535434 ao pcl
-1.55043130039 ao q
-0.421265647446 ao r
-1.28551166643 ao s
-2.39730554011 ao sh
-3.56990064124 ao t
-1.67203375533 ao tcl
-1.91958161001 ao th
-3.69150309618 ao uh
-3.66544542726 ao uw
-3.23549389018 ao ux
-2.5319368295 ao v
-2.21055891289 ao w
-2.72736934635 ao y
-1.75889265171 ao z
-3.56990064124 ao zh
-2.68828284298 aw aa
-2.46244971239 aw ae
-1.98906872712 aw ah
-3.16166382826 aw ao
-3.17903560753 aw aw
-1.70243436906 aw ax
-3.4917276345 aw axh
-1.35065583872 aw axr
-2.21055891289 aw ay
-2.70565462226 aw b
-2.46244971239 aw bcl
-3.1269202697 aw ch
-2.65788222925 aw d
-1.6199184175 aw dcl
-2.46244971239 aw dh
-1.08573620476 aw dx
-1.93261044447 aw eh
-2.46244971239 aw el
-3.9477368405 aw em
-3.24417977982 aw en
-4.62957917709 aw eng
-2.46244971239 aw epi
-1.67203375533 aw er
-2.31913253336 aw ey
-2.21055891289 aw f
-2.9662313114 aw g
-2.46244971239 aw gcl
-1.84140860327 aw h#
-3.07046198706 aw hh
-2.31913253336 aw hv
-2.41467731938 aw ih
-2.04986995458 aw ix
-2.31913253336 aw iy
-3.0357184285 aw jh
-2.46244971239 aw k
-1.98906872712 aw kcl
-1.73283498279 aw l
-1.76323559653 aw m
-0.608012274665 aw n
-2.9662313114 aw ng
-1.76323559653 aw nx
-2.21055891289 aw ow
-2.68393989816 aw oy
-2.63182456033 aw p
-2.46244971239 aw pau
-1.93261044447 aw pcl
-1.03362086693 aw q
-2.31913253336 aw r
-1.28985461125 aw s
-2.68393989816 aw sh
-2.44507793312 aw t
-0.864246018987 aw tcl
-2.12370001651 aw th
-3.34406751066 aw uh
-3.31800984174 aw uw
-2.88805830466 aw ux
-3.16166382826 aw v
-1.4375147351 aw w
-3.16166382826 aw y
-1.70243436906 aw z
-3.16166382826 aw zh
-3.84784910966 ax aa
-3.62201597907 ax ae
-3.62635892389 ax ah
-3.37446812439 ax ao
-3.84784910966 ax aw
-3.43092640704 ax ax
-4.42980371541 ax axh
-3.59161536534 ax axr
-3.84784910966 ax ay
-3.64373070317 ax b
-1.1639092115 ax bcl
-3.84784910966 ax ch
-3.59595831016 ax d
-1.45922945919 ax dcl
-1.83706565845 ax dh
-1.94129633411 ax dx
-3.46566996559 ax eh
-4.00419512315 ax el
-3.84784910966 ax em
-4.18225586073 ax en
-5.567655258 ax eng
-3.1486349938 ax epi
-3.75230432364 ax er
-3.62635892389 ax ey
-1.40711412137 ax f
-3.90430739231 ax g
-1.871809217 ax gcl
-1.99775461675 ax h#
-2.28004602999 ax hh
-1.97603989266 ax hv
-3.35275340029 ax ih
-3.84784910966 ax ix
-3.31366689692 ax iy
-3.97379450941 ax jh
-3.4005257933 ax k
-1.46357240401 ax kcl
-0.89898957754 ax l
-0.964133749825 ax m
-0.972819639463 ax n
-3.84784910966 ax ng
-2.02381228567 ax nx
-3.37446812439 ax ow
-4.49929083252 ax oy
-3.56990064124 ax p
-2.73605523599 ax pau
-1.23773927342 ax pcl
-1.88918099628 ax q
-1.8023220999 ax r
-1.06836442548 ax s
-2.48850738131 ax sh
-3.38315401403 ax t
-1.46357240401 ax tcl
-1.73283498279 ax th
-4.28214359157 ax uh
-4.25608592265 ax uw
-3.82613438557 ax ux
-1.08139325994 ax v
-1.36368467318 ax w
-3.1486349938 ax y
-1.35934172836 ax z
-4.80763991467 ax zh
-2.91411597357 axh aa
-2.90977302875 axh ae
-2.91411597357 axh ah
-2.99663192513 axh ao
-2.8533147461 axh aw
-2.71868345671 axh ax
-3.71756076509 axh axh
-2.87937241502 axh axr
-2.98360309068 axh ay
-2.93148775285 axh b
-0.955447860187 axh bcl
-3.35275340029 axh ch
-2.88371535984 axh d
-1.53305952112 axh dcl
-1.74152087243 axh dh
-2.15410063024 axh dx
-2.75342701527 axh eh
-2.37559081601 axh el
-4.17356997109 axh em
-3.47001291041 axh en
-4.85541230768 axh eng
-3.3093239521 axh epi
-3.04006137332 axh er
-2.91411597357 axh ey
-1.57648896931 axh f
-3.19206444199 axh g
-1.89786688592 axh gcl
-1.89786688592 axh h#
-3.29629511765 axh hh
-3.40921168294 axh hv
-2.64051044997 axh ih
-2.40164848492 axh ix
-2.6014239466 axh iy
-2.8533147461 axh jh
-2.68828284298 axh k
-0.655784667674 axh kcl
-1.89786688592 axh l
-1.49397301775 axh m
-1.74152087243 axh n
-3.19206444199 axh ng
-2.8533147461 axh nx
-3.04874726296 axh ow
-3.7870478822 axh oy
-2.85765769092 axh p
-3.31800984174 axh pau
-0.842531294892 axh pcl
-1.81100798954 axh q
-2.00644050639 axh r
-0.816473625978 axh s
-2.8533147461 axh sh
-2.6709110637 axh t
-1.14653743222 axh tcl
-2.15410063024 axh th
-3.56990064124 axh uh
-3.54384297233 axh uw
-3.11389143525 axh ux
-1.74152087243 axh v
-1.89786688592 axh w
-2.8533147461 axh y
-1.67637670015 axh z
-4.09539696435 axh zh
-2.29307486445 axr aa
-2.84462885647 axr ae
-2.45810676757 axr ah
-2.45810676757 axr ao
-2.73605523599 axr aw
-2.29307486445 axr ax
-3.7870478822 axr axh
-3.68716015136 axr axr
-2.1454147406 axr ay
-3.00097486995 axr b
-1.44185767992 axr bcl
-3.4222405174 axr ch
-2.95320247694 axr d
-1.15088037704 axr dcl
-1.75889265171 axr dh
-1.55043130039 axr dx
-2.22793069216 axr eh
-2.36690492637 axr el
-4.24305708819 axr em
-3.68716015136 axr en
-4.92489942478 axr eng
-2.84462885647 axr epi
-2.84462885647 axr er
-1.8023220999 axr ey
-1.2551110527 axr f
-3.26155155909 axr g
-1.87615216182 axr gcl
-1.04664970139 axr h#
-2.41033437456 axr hh
-1.77192148617 axr hv
-2.2583313059 axr ih
-1.58083191413 axr ix
-1.88918099628 axr iy
-3.3310386762 axr jh
-2.75776996009 axr k
-1.31156933535 axr kcl
-1.59386074858 axr l
-1.31591228017 axr m
-1.46791534883 axr n
-3.68716015136 axr ng
-2.99228898031 axr nx
-2.73605523599 axr ow
-3.68716015136 axr oy
-2.92714480803 axr p
-2.1454147406 axr pau
-1.55911719003 axr pcl
-1.54174541076 axr q
-1.24208221824 axr r
-1.18128099078 axr s
-2.1454147406 axr sh
-2.74039818081 axr t
-1.24208221824 axr tcl
-2.45810676757 axr th
-3.63938775835 axr uh
-3.61333008944 axr uw
-3.18337855235 axr ux
-1.72849203797 axr v
-1.4375147351 axr w
-2.0759276235 axr y
-1.11613681849 axr z
-2.84462885647 axr zh
-2.15410063024 ay aa
-1.99775461675 ay ae
-2.41033437456 ay ah
-2.06724173386 ay ao
-3.58727242052 ay aw
-2.12370001651 ay ax
-3.6741313169 ay axh
-1.48528712811 ay axr
-2.47547854685 ay ay
-2.88805830466 ay b
-1.59386074858 ay bcl
-3.3093239521 ay ch
-2.84028591165 ay d
-1.15088037704 ay dcl
-2.18884418879 ay dh
-1.40277117655 ay dx
-1.89786688592 ay eh
-2.74039818081 ay el
-4.1301405229 ay em
-2.88805830466 ay en
-4.81198285949 ay eng
-3.10954849043 ay epi
-1.8023220999 ay er
-2.22793069216 ay ey
-1.66769081051 ay f
-3.1486349938 ay g
-1.91523866519 ay gcl
-2.01946934085 ay h#
-2.74039818081 ay hh
-2.35821903673 ay hv
-2.06724173386 ay ih
-1.32025522499 ay ix
-1.88049510664 ay iy
-3.2181221109 ay jh
-2.64485339479 ay k
-1.14653743222 ay kcl
-1.32894111462 ay l
-1.24208221824 ay m
-1.08139325994 ay n
-2.26701719553 ay ng
-2.01946934085 ay nx
-2.09764234759 ay ow
-3.74361843401 ay oy
-2.81422824273 ay p
-2.88805830466 ay pau
-1.97603989266 ay pcl
-1.33328405944 ay q
-1.77626443098 ay r
-1.15088037704 ay s
-2.35821903673 ay sh
-2.62748161551 ay t
-1.15088037704 ay tcl
-3.10954849043 ay th
-3.52647119305 ay uh
-3.50041352414 ay uw
-2.88805830466 ay ux
-1.58517485895 ay v
-2.54496566395 ay w
-1.91523866519 ay y
-1.15088037704 ay z
-4.05196751616 ay zh
-1.27248276669 b aa
-1.28985454597 b ae
-1.27682571151 b ah
-1.5026588421 b ao
-1.7545496416 b aw
-1.62860424185 b ax
-2.79251345335 b axh
-1.8674662069 b axr
-1.07270730502 b ay
-3.24417971453 b b
-3.30063799718 b bcl
-3.66544536198 b ch
-3.19640732152 b d
-2.9401735772 b dcl
-3.20509321116 b dh
-3.30932388682 b dx
-1.37237049753 b eh
-1.15088031176 b el
-3.16166376297 b em
-3.63938769306 b en
-5.16810426936 b eng
-3.63938769306 b epi
-1.45922939391 b er
-2.00644044111 b ey
-3.16166376297 b f
-3.50475640367 b g
-3.46132695548 b gcl
-2.46244964711 b h#
-3.16166376297 b hh
-3.16166376297 b hv
-1.10745086357 b ih
-1.3202551597 b ix
-0.920704236349 b iy
-3.57424352078 b jh
-3.00097480467 b k
-3.63938769306 b kcl
-1.21602448404 b l
-3.04440425286 b m
-3.63938769306 b n
-3.50475640367 b ng
-3.75230425836 b nx
-1.48963000764 b ow
-1.78929320016 b oy
-3.17034965261 b p
-3.63938769306 b pau
-3.15732081815 b pcl
-3.16166376297 b q
-1.05967847056 b r
-2.79251345335 b s
-3.46132695548 b sh
-3.63938769306 b t
-2.82291406709 b tcl
-2.9401735772 b th
-1.85443737244 b uh
-2.41033430928 b uw
-2.46244964711 b ux
-3.16166376297 b v
-2.68393983288 b w
-1.91523859991 b y
-1.94998215846 b z
-4.40808892603 b zh
-3.5829294757 bcl aa
-3.23549389018 bcl ae
-3.5829294757 bcl ah
-3.5829294757 bcl ao
-3.73058959955 bcl aw
-2.88371535984 bcl ax
-4.04328162652 bcl axh
-2.54062271913 bcl axr
-3.3093239521 bcl ay
-0.0608012274665 bcl b
-3.31366689692 bcl bcl
-2.46679265721 bcl ch
-1.8935239411 bcl d
-2.99228898031 bcl dcl
-2.46679265721 bcl dh
-3.32235278656 bcl dx
-3.5829294757 bcl eh
-2.08895645795 bcl el
-3.10520554561 bcl em
-3.5829294757 bcl en
-5.18113316911 bcl eng
-3.63504481353 bcl epi
-2.73605523599 bcl er
-3.239836835 bcl ey
-2.46679265721 bcl f
-3.51778530342 bcl g
-3.47435585523 bcl gcl
-2.2583313059 bcl h#
-3.10520554561 bcl hh
-3.5829294757 bcl hv
-2.73605523599 bcl ih
-2.18450124397 bcl ix
-2.46679265721 bcl iy
-2.01512639603 bcl jh
-2.46679265721 bcl k
-2.97491720104 bcl kcl
-2.21924480253 bcl l
-2.30176075409 bcl m
-2.46679265721 bcl n
-3.51778530342 bcl ng
-3.7653331581 bcl nx
-3.37446812439 bcl ow
-4.11276874362 bcl oy
-2.46679265721 bcl p
-3.5829294757 bcl pau
-3.17034971789 bcl pcl
-3.16600677307 bcl q
-2.73605523599 bcl r
-2.3495331471 bcl s
-2.62748161551 bcl sh
-1.94998222375 bcl t
-2.83594296683 bcl tcl
-2.73605523599 bcl th
-3.89562150267 bcl uh
-3.86956383376 bcl uw
-3.5829294757 bcl ux
-2.54062271913 bcl v
-2.88371535984 bcl w
-3.10520554561 bcl y
-2.3495331471 bcl z
-4.42111782578 bcl zh
-1.30722639053 ch aa
-1.62426136232 ch ae
-1.9847257823 ch ah
-2.26267425072 ch ao
-3.04440431814 ch aw
-1.78495032062 ch ax
-2.73605523599 ch axh
-1.1639092115 ch axr
-1.58083191413 ch ay
-2.57102333287 ch b
-1.9847257823 ch bcl
-2.99228898031 ch ch
-2.52325093986 ch d
-1.67203375533 ch dcl
-1.9847257823 ch dh
-2.63616750515 ch dx
-1.47660123847 ch eh
-1.85443743773 ch el
-3.81310555111 ch em
-2.37124787119 ch en
-4.4949478877 ch eng
-1.5070018522 ch epi
-1.30722639053 ch er
-1.16825215632 ch ey
-1.8935239411 ch f
-2.83160002201 ch g
-1.75454970689 ch gcl
-1.52437363148 ch h#
-2.03684112013 ch hh
-3.21377916608 ch hv
-1.21168160451 ch ih
-1.09007914958 ch ix
-1.28551166643 ch iy
-2.90108713911 ch jh
-2.327818423 ch k
-1.54174541076 ch kcl
-1.78495032062 ch l
-3.21377916608 ch m
-3.21377916608 ch n
-2.83160002201 ch ng
-3.07914787669 ch nx
-1.93695338929 ch ow
-2.03684112013 ch oy
-2.49719327094 ch p
-2.26267425072 ch pau
-1.9847257823 ch pcl
-2.17147240952 ch q
-2.03684112013 ch r
-1.62426136232 ch s
-3.21377916608 ch sh
-2.31044664373 ch t
-1.35065583872 ch tcl
-2.17147240952 ch th
-2.03684112013 ch uh
-1.81535093436 ch uw
-1.45922945919 ch ux
-2.26267425072 ch v
-3.21377916608 ch w
-1.81535093436 ch y
-2.10198529241 ch z
-3.73493254437 ch zh
-1.52437363148 d aa
-1.7806073758 d ae
-1.48528712811 d ah
-1.62426136232 d ao
-1.62426136232 d aw
-1.48094418329 d ax
-2.1671294647 d axh
-1.69809142424 d axr
-1.78929326544 d ay
-3.13994910416 d b
-2.41033437456 d bcl
-3.56121475161 d ch
-3.09217671115 d d
-2.8750294702 d dcl
-3.10086260079 d dh
-3.20509327645 d dx
-1.45922945919 d eh
-2.5102221054 d el
-3.20943622127 d em
-2.41033437456 d en
-5.06387365899 d eng
-2.84028591165 d epi
-2.03249817531 d er
-1.28985461125 d ey
-1.72849203797 d f
-3.4005257933 d g
-2.45810676757 d gcl
-1.12047976331 d h#
-1.94563927893 d hh
-1.8023220999 d hv
-0.98584847392 d ih
-0.833845405254 d ix
-1.3245981698 d iy
-3.47001291041 d jh
-2.89674419429 d k
-1.99775461675 d kcl
-1.76757854135 d l
-2.98794603549 d m
-3.20943622127 d n
-3.4005257933 d ng
-3.64807364799 d nx
-1.71980614834 d ow
-3.99550923351 d oy
-3.06611904224 d p
-1.81100798954 d pau
-3.20943622127 d pcl
-1.78929326544 d q
-1.16825215632 d r
-1.82403682399 d s
-2.73171229117 d sh
-2.87937241502 d t
-2.84028591165 d tcl
-3.68716015136 d th
-2.5102221054 d uh
-2.19753007843 d uw
-1.49831596257 d ux
-2.45810676757 d v
-1.7806073758 d w
-2.22358774734 d y
-1.64163314159 d z
-3.68716015136 d zh
-3.43961229667 dcl aa
-3.42658346222 dcl ae
-3.43961229667 dcl ah
-3.90430739231 dcl ao
-3.90430739231 dcl aw
-2.6231386707 dcl ax
-3.90430739231 dcl axh
-3.20509327645 dcl axr
-3.50909941378 dcl ay
-1.4375147351 dcl b
-3.90430739231 dcl bcl
-2.38427670565 dcl ch
-0.304006137332 dcl d
-3.19206444199 dcl dcl
-1.81100798954 dcl dh
-3.52212824824 dcl dx
-3.90430739231 dcl eh
-3.20509327645 dcl el
-3.42658346222 dcl em
-1.81100798954 dcl en
-5.38090863078 dcl eng
-3.83482027521 dcl epi
-3.56555769643 dcl er
-3.90430739231 dcl ey
-1.92392455483 dcl f
-2.38427670565 dcl g
-3.6741313169 dcl gcl
-1.52437363148 dcl h#
-2.50587916058 dcl hh
-2.33650431264 dcl hv
-2.78817057382 dcl ih
-2.31044664373 dcl ix
-3.20509327645 dcl iy
-0.664470557312 dcl jh
-2.16278651988 dcl k
-3.17469266271 dcl kcl
-2.41033437456 dcl l
-1.99341167194 dcl m
-1.92392455483 dcl n
-3.71756076509 dcl ng
-3.96510861978 dcl nx
-3.90430739231 dcl ow
-4.3125442053 dcl oy
-1.93261044447 dcl p
-2.38427670565 dcl pau
-3.37012517957 dcl pcl
-2.23227363698 dcl q
-2.27136014035 dcl r
-1.7806073758 dcl s
-2.57970922251 dcl sh
-1.64163314159 dcl t
-3.0357184285 dcl tcl
-2.31044664373 dcl th
-4.09539696435 dcl uh
-4.06933929543 dcl uw
-3.63938775835 dcl ux
-2.11935707169 dcl v
-2.04118406495 dcl w
-3.20509327645 dcl y
-1.65031903123 dcl z
-3.90430739231 dcl zh
-2.97926014586 dh aa
-1.51134479702 dh ae
-1.69809142424 dh ah
-3.46566996559 dh ao
-2.63616750515 dh aw
-0.58195460575 dh ax
-1.91958161001 dh axh
-1.36368467318 dh axr
-3.45264113113 dh ay
-3.4005257933 dh b
-3.20075033163 dh bcl
-3.82179144075 dh ch
-3.35275340029 dh d
-3.67847426172 dh dcl
-3.36143928993 dh dh
-3.46566996559 dh dx
-1.08139325994 dh eh
-3.20075033163 dh el
-4.64260801155 dh em
-3.20075033163 dh en
-5.32445034813 dh eng
-3.67847426172 dh epi
-1.68071964497 dh er
-1.24208221824 dh ey
-2.83160002201 dh f
-3.66110248244 dh g
-3.67847426172 dh gcl
-3.67847426172 dh h#
-3.7653331581 dh hh
-3.20075033163 dh hv
-1.09876503922 dh ih
-0.612355219484 dh ix
-0.98584847392 dh iy
-3.73058959955 dh jh
-3.15732088344 dh k
-3.67847426172 dh kcl
-3.67847426172 dh l
-3.67847426172 dh m
-3.67847426172 dh n
-3.66110248244 dh ng
-3.90865033713 dh nx
-1.75889265171 dh ow
-4.25608592265 dh oy
-3.32669573138 dh p
-3.20075033163 dh pau
-2.72302640153 dh pcl
-2.83160002201 dh q
-3.06611904224 dh r
-2.63616750515 dh s
-3.67847426172 dh sh
-3.13994910416 dh t
-2.97926014586 dh tcl
-3.86522088894 dh th
-2.83160002201 dh uh
-4.01288101279 dh uw
-3.5829294757 dh ux
-3.67847426172 dh v
-3.20075033163 dh w
-3.73927548919 dh y
-3.17034971789 dh z
-4.5644350048 dh zh
-2.05421283497 dx aa
-1.89786682148 dx ae
-1.5591171256 dx ah
-1.73283491836 dx ao
-2.24964535183 dx aw
-1.01624902322 dx ax
-2.87068646095 dx axh
-1.04230669213 dx axr
-2.53193676506 dx ay
-3.70018892138 dx b
-3.75664720403 dx bcl
-4.12145456883 dx ch
-3.65241652837 dx d
-3.43526928742 dx dcl
-3.66110241801 dx dh
-3.76533309367 dx dx
-1.6503189668 dx eh
-1.63294718752 dx el
-4.94227113963 dx em
-1.86312326293 dx en
-2.72736928192 dx eng
-4.07802512064 dx epi
-1.48094411886 dx er
-1.95866804895 dx ey
-3.69150303174 dx f
-3.96076561052 dx g
-3.91733616233 dx gcl
-3.47001284597 dx h#
-4.06499628618 dx hh
-2.87068646095 dx hv
-0.872931844192 dx ih
-0.547210982764 dx ix
-0.760015278897 dx iy
-4.03025272763 dx jh
-3.45698401152 dx k
-3.41789750814 dx kcl
-3.09651959154 dx l
-3.50041345971 dx m
-3.56990057681 dx n
-3.96076561052 dx ng
-4.20831346521 dx nx
-1.70677724945 dx ow
-4.55574905073 dx oy
-3.62635885946 dx p
-4.08671101028 dx pau
-3.613330025 dx pcl
-3.60898708018 dx q
-3.56990057681 dx r
-3.2485226602 dx s
-3.91733616233 dx sh
-3.43961223224 dx t
-3.27892327394 dx tcl
-4.16488401702 dx th
-2.45810670314 dx uh
-2.39730547567 dx uw
-2.87068646095 dx ux
-3.73927542475 dx v
-3.69150303174 dx w
-4.03893861727 dx y
-3.47001284597 dx z
-4.86409813288 dx zh
-3.81744849593 eh aa
-3.54818591715 eh ae
-3.81744849593 eh ah
-3.63504481353 eh ao
-4.04328162652 eh aw
-2.97057425622 eh ax
-4.35597365349 eh axh
-1.8023220999 eh axr
-3.62201597907 eh ay
-3.56990064124 eh b
-2.64051044997 eh bcl
-3.99116628869 eh ch
-3.52212824824 eh d
-1.18128099078 eh dcl
-2.1454147406 eh dh
-1.37237056281 eh dx
-3.39183990366 eh eh
-3.81744849593 eh el
-4.81198285949 eh em
-4.1084257988 eh en
-5.49382519608 eh eng
-3.11823438007 eh epi
-1.98906872712 eh er
-3.55252886197 eh ey
-1.87615216182 eh f
-3.81744849593 eh g
-1.88918099628 eh gcl
-3.33972456584 eh h#
-3.33972456584 eh hh
-2.64051044997 eh hv
-3.27892333837 eh ih
-3.33972456584 eh ix
-3.239836835 eh iy
-3.33972456584 eh jh
-3.32669573138 eh k
-1.04230675657 eh kcl
-0.903332522359 eh l
-1.35934172836 eh m
-0.790415957064 eh n
-2.16278651988 eh ng
-1.45922945919 eh nx
-3.68716015136 eh ow
-4.42546077059 eh oy
-3.49607057932 eh p
-3.95642273014 eh pau
-1.77192148617 eh pcl
-2.05855584422 eh q
-1.09007914958 eh r
-1.15088037704 eh s
-1.7806073758 eh sh
-3.81744849593 eh t
-1.3245981698 eh tcl
-2.86200063574 eh th
-4.20831352964 eh uh
-4.18225586073 eh uw
-3.75230432364 eh ux
-1.0944220944 eh v
-2.86200063574 eh w
-3.90865033713 eh y
-1.65466197605 eh z
-2.0759276235 eh zh
-1.91958161001 el aa
-2.43204909866 el ae
-2.2366165818 el ah
-2.43204909866 el ao
-3.20509327645 el aw
-1.415800011 el ax
-3.51778530342 el axh
-2.67959695334 el axr
-1.81535093436 el ay
-2.73171229117 el b
-1.57214602449 el bcl
-3.15297793862 el ch
-2.68393989816 el d
-1.19430982523 el dcl
-1.95866811338 el dh
-2.57970922251 el dx
-2.00209756157 el eh
-3.09217671115 el el
-3.97379450941 el em
-3.27023744873 el en
-4.655636846 el eng
-2.32347547818 el epi
-2.80119940828 el er
-2.32347547818 el ey
-1.32894111462 el f
-2.99228898031 el g
-1.49397301775 el gcl
-0.972819639463 el h#
-2.32347547818 el hh
-1.91958161001 el hv
-1.88049510664 el ih
-1.53740246594 el ix
-1.55477424521 el iy
-3.06177609742 el jh
-2.48850738131 el k
-1.64597608641 el kcl
-1.53740246594 el l
-1.75889265171 el m
-1.64597608641 el n
-2.99228898031 el ng
-3.239836835 el nx
-2.57970922251 el ow
-3.58727242052 el oy
-2.65788222925 el p
-1.52437363148 el pau
-1.45488651438 el pcl
-1.30288344571 el q
-1.91958161001 el r
-1.18996688041 el s
-2.43204909866 el sh
-2.47113560203 el t
-1.09007914958 el tcl
-2.10198529241 el th
-3.37012517957 el uh
-3.27892333837 el uw
-2.80119940828 el ux
-2.10198529241 el v
-1.75889265171 el w
-3.27892333837 el y
-1.02493497729 el z
-3.27892333837 el zh
-2.39296259529 em aa
-2.23227363698 em ae
-2.39296259529 em ah
-1.91523866519 em ao
-2.72736934635 em aw
-2.39296259529 em ax
-3.04006137332 em axh
-2.39296259529 em axr
-2.30610369891 em ay
-2.25398836108 em b
-1.44185767992 em bcl
-2.67525400852 em ch
-2.20621596807 em d
-1.98906872712 em dcl
-1.0727073703 em dh
-2.31913253336 em dx
-1.55043130039 em eh
-2.61445278106 em el
-3.49607057932 em em
-2.79251351864 em en
-4.17791291591 em eng
-1.35499878354 em epi
-2.36256198155 em er
-2.2366165818 em ey
-1.91523866519 em f
-2.51456505022 em g
-2.47113560203 em gcl
-1.28116872161 em h#
-2.39296259529 em hh
-2.39296259529 em hv
-1.69374847942 em ih
-2.39296259529 em ix
-1.91523866519 em iy
-2.58405216732 em jh
-2.01078345121 em k
-1.69374847942 em kcl
-1.94563927893 em l
-2.0542128994 em m
-1.69374847942 em n
-2.51456505022 em ng
-2.7621129049 em nx
-1.91523866519 em ow
-3.10954849043 em oy
-2.18015829915 em p
-1.91523866519 em pau
-0.58195460575 em pcl
-1.91523866519 em q
-2.39296259529 em r
-1.44185767992 em s
-2.47113560203 em sh
-1.99341167194 em t
-1.0727073703 em tcl
-2.39296259529 em th
-2.89240124948 em uh
-2.86634358056 em uw
-2.39296259529 em ux
-1.69374847942 em v
-2.39296259529 em w
-1.69374847942 em y
-1.55043130039 em z
-3.41789757258 em zh
-2.40164848492 en aa
-2.6231386707 en ae
-1.92392455483 en ah
-3.10086260079 en ao
-2.6231386707 en aw
-1.41145706619 en ax
-3.09217671115 en axh
-2.6231386707 en axr
-2.6231386707 en ay
-2.30610369891 en b
-1.73717792761 en bcl
-3.10086260079 en ch
-2.40164848492 en d
-1.41145706619 en dcl
-1.60688958304 en dh
-2.37124787119 en dx
-1.63729019678 en eh
-1.55477424521 en el
-3.54818591715 en em
-2.84462885647 en en
-4.23002825374 en eng
-1.77626443098 en epi
-2.6231386707 en er
-3.10086260079 en ey
-1.60688958304 en f
-2.56668038805 en g
-2.25398836108 en gcl
-0.855560129349 en h#
-2.25398836108 en hh
-3.10086260079 en hv
-1.81969387917 en ih
-1.46791534883 en ix
-1.9847257823 en iy
-3.10086260079 en jh
-2.06289878904 en k
-1.55477424521 en kcl
-1.77626443098 en l
-1.66769081051 en m
-3.10086260079 en n
-2.56668038805 en ng
-2.81422824273 en nx
-2.6231386707 en ow
-3.16166382826 en oy
-2.23227363698 en p
-2.6231386707 en pau
-1.81969387917 en pcl
-1.44620062474 en q
-1.9847257823 en r
-0.925047246454 en s
-1.9847257823 en sh
-2.40164848492 en t
-0.855560129349 en tcl
-3.10086260079 en th
-2.9445165873 en uh
-2.91845891839 en uw
-2.6231386707 en ux
-2.1454147406 en v
-1.871809217 en w
-2.25398836108 en y
-1.14219448741 en z
-3.47001291041 en zh
-2.26267411156 eng aa
-2.25833116674 eng ae
-2.26267411156 eng ah
-2.34519006312 eng ao
-2.75342687611 eng aw
-1.71546306436 eng ax
-3.06611890308 eng axh
-2.22793055301 eng axr
-2.33216122867 eng ay
-2.28004589084 eng b
-2.33650417348 eng bcl
-2.70131153828 eng ch
-2.23227349783 eng d
-2.01512625688 eng dcl
-2.24095938747 eng dh
-2.34519006312 eng dx
-1.71546306436 eng eh
-2.64051031082 eng el
-3.52212810908 eng em
-2.8185710484 eng en
-4.20397044567 eng eng
-2.65788209009 eng epi
-2.38861951131 eng er
-2.26267411156 eng ey
-2.2713600012 eng f
-2.54062257998 eng g
-0.673156307795 eng gcl
-0.603669190691 eng h#
-2.64485325564 eng hh
-2.75776982093 eng hv
-1.98906858796 eng ih
-1.71546306436 eng ix
-1.94998208459 eng iy
-2.61010969708 eng jh
-2.03684098097 eng k
-1.23773913427 eng kcl
-1.97169680869 eng l
-2.08027042916 eng m
-1.82403668484 eng n
-2.54062257998 eng ng
-2.78817043466 eng nx
-2.39730540095 eng ow
-3.13560602019 eng oy
-2.20621582891 eng p
-2.66656797973 eng pau
-1.71546306436 eng pcl
-1.71546306436 eng q
-1.94563913977 eng r
-1.71546306436 eng s
-2.49719313179 eng sh
-2.0194692017 eng t
-1.23773913427 eng tcl
-2.74474098647 eng th
-2.91845877924 eng uh
-2.89240111032 eng uw
-2.46244957324 eng ux
-2.31913239421 eng v
-1.71546306436 eng w
-1.23773913427 eng y
-2.04986981543 eng z
-3.44395510234 eng zh
-2.783827629 epi aa
-3.25720861427 epi ae
-2.41467731938 epi ah
-2.41467731938 epi ao
-3.25720861427 epi aw
-2.783827629 epi ax
-3.75664726846 epi axh
-2.55799449841 epi axr
-2.55799449841 epi ay
-2.97057425622 epi b
-3.25720861427 epi bcl
-3.25720861427 epi ch
-2.92280186321 epi d
-2.70565462226 epi dcl
-1.56780307967 epi dh
-3.0357184285 epi dx
-2.41467731938 epi eh
-2.30610369891 epi el
-3.25720861427 epi em
-1.50265890739 epi en
-2.783827629 epi eng
-3.34841045547 epi epi
-3.25720861427 epi er
-2.95320247694 epi ey
-1.53305952112 epi f
-3.25720861427 epi g
-3.18772149717 epi gcl
-2.74039818081 epi h#
-3.25720861427 epi hh
-3.44829818631 epi hv
-2.783827629 epi ih
-1.98038283748 epi ix
-2.55799449841 epi iy
-3.30063806246 epi jh
-2.72736934635 epi k
-3.25720861427 epi kcl
-1.19865277005 epi l
-0.660127612493 epi m
-0.890303687902 epi n
-3.23115094536 epi ng
-3.47869880005 epi nx
-3.25720861427 epi ow
-3.82613438557 epi oy
-2.783827629 epi p
-3.35709634511 epi pau
-2.88371535984 epi pcl
-2.55799449841 epi q
-1.37237056281 epi r
-1.08139325994 epi s
-2.1454147406 epi sh
-2.70999756708 epi t
-2.54930860877 epi tcl
-1.48963007293 epi th
-3.60898714462 epi uh
-3.5829294757 epi uw
-3.15297793862 epi ux
-2.02815523049 epi v
-0.664470557312 epi w
-2.30610369891 epi y
-1.48963007293 epi z
-4.13448346772 epi zh
-2.57536627769 er aa
-2.83160002201 er ae
-2.29741780927 er ah
-2.57536627769 er ao
-2.83160002201 er aw
-1.85878038255 er ax
-3.60030125498 er axh
-2.20621596807 er axr
-2.48850738131 er ay
-2.81422824273 er b
-1.48528712811 er bcl
-3.05309020778 er ch
-2.76645584972 er d
-1.14219448741 er dcl
-1.87615216182 er dh
-1.55911719003 er dx
-2.41467731938 er eh
-2.57536627769 er el
-3.53081413787 er em
-2.83160002201 er en
-3.53081413787 er eng
-3.05309020778 er epi
-3.53081413787 er er
-2.13238590614 er ey
-1.72849203797 er f
-3.07480493188 er g
-2.06724173386 er gcl
-1.6894055346 er h#
-2.57536627769 er hh
-1.78929326544 er hv
-1.80666504472 er ih
-1.20733865969 er ix
-1.39408528691 er iy
-2.83160002201 er jh
-2.57102333287 er k
-1.23339632861 er kcl
-1.35065583872 er l
-1.32894111462 er m
-1.44185767992 er n
-3.07480493188 er ng
-2.01078345121 er nx
-2.48850738131 er ow
-3.66978837208 er oy
-2.74039818081 er p
-1.85878038255 er pau
-1.52437363148 er pcl
-1.368027618 er q
-1.78929326544 er r
-1.15956626668 er s
-1.93695338929 er sh
-2.55365155359 er t
-1.24208221824 er tcl
-1.71546320352 er th
-3.45264113113 er uh
-3.42658346222 er uw
-2.99663192513 er ux
-1.42014295582 er v
-1.6199184175 er w
-2.41467731938 er y
-1.14219448741 er z
-2.57536627769 er zh
-2.42770615384 ey aa
-2.29741780927 ey ae
-2.70131167744 ey ah
-2.06724173386 ey ao
-2.54496566395 ey aw
-2.54496566395 ey ax
-3.75230432364 ey axh
-2.42770615384 ey axr
-2.42770615384 ey ay
-2.9662313114 ey b
-1.47225829365 ey bcl
-3.38749695885 ey ch
-2.91845891839 ey d
-1.19430982523 ey dcl
-2.47982149167 ey dh
-1.05099264621 ey dx
-2.47982149167 ey eh
-2.95754542176 ey el
-4.20831352964 ey em
-3.50475646896 ey en
-3.65675953763 ey eng
-2.70131167744 ey epi
-2.42770615384 ey er
-3.65675953763 ey ey
-1.79363621026 ey f
-3.22680800054 ey g
-2.13672885096 ey gcl
-1.6894055346 ey h#
-2.33650431264 ey hh
-2.37993376083 ey hv
-2.2583313059 ey ih
-1.7806073758 ey ix
-2.95754542176 ey iy
-3.17903560753 ey jh
-2.72302640153 ey k
-1.12482270813 ey kcl
-1.43317179028 ey l
-1.26813988716 ey m
-1.11179387367 ey n
-2.11501412687 ey ng
-2.22793069216 ey nx
-2.42770615384 ey ow
-3.82179144075 ey oy
-2.89240124948 ey p
-2.54496566395 ey pau
-1.50265890739 ey pcl
-1.39408528691 ey q
-2.33650431264 ey r
-1.13350859777 ey s
-1.05533559102 ey sh
-2.70565462226 ey t
-0.994534363558 ey tcl
-2.22793069216 ey th
-3.6046441998 ey uh
-3.57858653088 ey uw
-3.1486349938 ey ux
-1.6199184175 ey v
-1.90220983074 ey w
-2.1671294647 ey y
-1.60254663822 ey z
-2.47982149167 ey zh
-1.56346013485 f aa
-1.73717792761 f ae
-1.55477424521 f ah
-1.05967853584 f ao
-1.87615216182 f aw
-1.48528712811 f ax
-2.18450124397 f axh
-1.06836442548 f axr
-1.43317179028 f ay
-3.13126321452 f b
-2.36690492637 f bcl
-3.55252886197 f ch
-3.08349082151 f d
-2.5319368295 f dcl
-2.32347547818 f dh
-3.19640738681 f dx
-1.54174541076 f eh
-1.56346013485 f el
-2.24964541626 f em
-2.32347547818 f en
-5.05518776935 f eng
-2.28438897481 f epi
-1.33762700426 f er
-1.63294725196 f ey
-3.12257732488 f f
-3.39183990366 f g
-3.64807364799 f gcl
-1.65900492087 f h#
-2.6926257878 f hh
-3.60898714462 f hv
-1.12482270813 f ih
-1.28116872161 f ix
-1.39408528691 f iy
-3.46132702077 f jh
-2.88805830466 f k
-2.10198529241 f kcl
-1.2551110527 f l
-3.64807364799 f m
-3.64807364799 f n
-3.39183990366 f ng
-3.63938775835 f nx
-2.03249817531 f ow
-3.17034971789 f oy
-3.0574331526 f p
-2.21490185771 f pau
-2.36690492637 f pcl
-2.28438897481 f q
-1.05967853584 f r
-1.55477424521 f s
-2.5319368295 f sh
-2.87068652538 f t
-1.23773927342 f tcl
-3.59595831016 f th
-1.92392455483 f uh
-2.28438897481 f uw
-2.10198529241 f ux
-2.94885953212 f v
-2.60576689142 f w
-1.77192148617 f y
-2.90108713911 f z
-4.29517242602 f zh
-1.24642516306 g aa
-1.3245981698 g ae
-1.45922945919 g ah
-1.68506258978 g ao
-2.33650431264 g aw
-2.01512639603 g ax
-3.37881106921 g axh
-1.4375147351 g axr
-1.94563927893 g ay
-3.0574331526 g b
-3.11389143525 g bcl
-3.47869880005 g ch
-3.00966075959 g d
-2.90108713911 g dcl
-3.01834664923 g dh
-3.12257732488 g dx
-1.15956626668 g eh
-1.88483805146 g el
-3.37881106921 g em
-2.90108713911 g en
-4.98135770743 g eng
-3.43526935185 g epi
-1.6199184175 g er
-1.52437363148 g ey
-2.26267425072 g f
-3.31800984174 g g
-3.27458039355 g gcl
-2.90108713911 g h#
-3.4222405174 g hh
-2.90108713911 g hv
-1.06402148066 g ih
-1.57648896931 g ix
-2.67959695334 g iy
-3.38749695885 g jh
-2.81422824273 g k
-2.77514173936 g kcl
-1.44620062474 g l
-3.37881106921 g m
-2.33650431264 g n
-3.31800984174 g ng
-3.56555769643 g nx
-1.09876503922 g ow
-2.42336320902 g oy
-2.98360309068 g p
-2.67959695334 g pau
-2.97057425622 g pcl
-2.9662313114 g q
-0.703557060683 g r
-1.91523866519 g s
-2.42336320902 g sh
-2.79685646346 g t
-2.67959695334 g tcl
-2.42336320902 g th
-1.48094418329 g uh
-2.20187302325 g uw
-1.76323559653 g ux
-3.09651965597 g v
-1.80666504472 g w
-1.74152087243 g y
-1.19865277005 g z
-4.2213423641 g zh
-3.41789757258 gcl aa
-3.41789757258 gcl ae
-3.41789757258 gcl ah
-3.41789757258 gcl ao
-3.55252886197 gcl aw
-2.71868345671 gcl ax
-3.86522088894 gcl axh
-2.14107179578 gcl axr
-3.13126321452 gcl ay
-1.98906872712 gcl b
-3.13560615934 gcl bcl
-2.37559081601 gcl ch
-1.69374847942 gcl d
-3.41789757258 gcl dcl
-3.04006137332 gcl dh
-3.14429204898 gcl dx
-3.41789757258 gcl eh
-2.46679265721 gcl el
-4.32123009494 gcl em
-3.61767303425 gcl en
-5.00307243153 gcl eng
-3.45698407595 gcl epi
-2.18884418879 gcl er
-3.41789757258 gcl ey
-2.71868345671 gcl f
-0.0998877308377 gcl g
-3.29629511765 gcl gcl
-2.94017364249 gcl h#
-3.41789757258 gcl hh
-3.55687180679 gcl hv
-2.94017364249 gcl ih
-1.76757854135 gcl ix
-2.74908407045 gcl iy
-2.37559081601 gcl jh
-2.14107179578 gcl k
-2.79685646346 gcl kcl
-2.46679265721 gcl l
-2.71868345671 gcl m
-1.63294725196 gcl n
-3.33972456584 gcl ng
-3.58727242052 gcl nx
-3.41789757258 gcl ow
-3.93470800604 gcl oy
-2.18884418879 gcl p
-2.71868345671 gcl pau
-2.99228898031 gcl pcl
-3.41789757258 gcl q
-2.05855584422 gcl r
-2.46679265721 gcl s
-2.94017364249 gcl sh
-2.09764234759 gcl t
-2.65788222925 gcl tcl
-2.57536627769 gcl th
-3.71756076509 gcl uh
-3.69150309618 gcl uw
-3.26155155909 gcl ux
-3.11823438007 gcl v
-2.37559081601 gcl w
-1.98906872712 gcl y
-1.6199184175 gcl z
-4.24305708819 gcl zh
-2.50587916058 h# aa
-2.3495331471 h# ae
-2.32347547818 h# ah
-2.3495331471 h# ao
-3.39183990366 h# aw
-1.97169694784 h# ax
-2.63616750515 h# axh
-3.86956383376 h# axr
-2.21490185771 h# ay
-1.37671350763 h# b
-3.17034971789 h# bcl
-2.06724173386 h# ch
-1.44620062474 h# d
-3.02268959405 h# dcl
-0.638412888398 h# dh
-3.15297793862 h# dx
-2.30176075409 h# eh
-3.86956383376 h# el
-3.39183990366 h# em
-2.91411597357 h# en
-5.01175832116 h# eng
-3.46566996559 h# epi
-3.19640738681 h# er
-2.27570308517 h# ey
-1.84575154809 h# f
-1.90220983074 h# g
-3.30498100728 h# gcl
-2.85765769092 h# h#
-1.05533559102 h# hh
-2.82725707719 h# hv
-1.88049510664 h# ih
-1.79363621026 h# ix
-2.54496566395 h# iy
-1.88049510664 h# jh
-1.39408528691 h# k
-3.86956383376 h# kcl
-1.98038283748 h# l
-1.5070018522 h# m
-1.6199184175 h# n
-3.34841045547 h# ng
-3.59595831016 h# nx
-2.91411597357 h# ow
-3.94339389568 h# oy
-1.66334786569 h# p
-3.86956383376 h# pau
-3.00097486995 h# pcl
-0.951104915368 h# q
-1.62860430714 h# r
-1.38105645245 h# s
-1.68506258978 h# sh
-1.43317179028 h# t
-3.86956383376 h# tcl
-2.37559081601 h# th
-3.72624665473 h# uh
-3.70018898582 h# uw
-3.27023744873 h# ux
-2.3495331471 h# v
-1.11613681849 h# w
-1.76323559653 h# y
-3.86956383376 h# z
-4.25174297783 h# zh
-1.14219448741 hh aa
-1.01624908765 hh ae
-1.56346013485 hh ah
-1.43317179028 hh ao
-1.11179387367 hh aw
-2.23227363698 hh ax
-2.79685646346 hh axh
-1.43317179028 hh axr
-1.53305952112 hh ay
-3.32669573138 hh b
-3.38315401403 hh bcl
-3.74796137883 hh ch
-3.27892333837 hh d
-3.06177609742 hh dcl
-3.28760922801 hh dh
-3.39183990366 hh dx
-1.07705031512 hh eh
-3.68716015136 hh el
-4.56877794962 hh em
-3.86522088894 hh en
-5.25062028621 hh eng
-3.70453193063 hh epi
-1.39842823173 hh er
-2.09764234759 hh ey
-3.31800984174 hh f
-3.58727242052 hh g
-3.54384297233 hh gcl
-2.23227363698 hh h#
-3.69150309618 hh hh
-3.80441966147 hh hv
-1.03362086693 hh ih
-1.16825215632 hh ix
-0.746986508874 hh iy
-3.65675953763 hh jh
-3.08349082151 hh k
-3.04440431814 hh kcl
-3.27458039355 hh l
-3.1269202697 hh m
-3.27458039355 hh n
-3.58727242052 hh ng
-3.83482027521 hh nx
-1.50265890739 hh ow
-4.18225586073 hh oy
-3.25286566946 hh p
-2.57536627769 hh pau
-3.239836835 hh pcl
-3.27458039355 hh q
-2.99228898031 hh r
-3.27458039355 hh s
-3.54384297233 hh sh
-3.06611904224 hh t
-2.90543008393 hh tcl
-3.79139082702 hh th
-2.31913253336 hh uh
-1.68071964497 hh uw
-1.87615216182 hh ux
-3.36578223475 hh v
-1.58083191413 hh w
-1.6199184175 hh y
-3.09651965597 hh z
-4.49060494288 hh zh
-1.3463128939 hv aa
-0.647098778036 hv ae
-1.66769081051 hv ah
-1.45054356956 hv ao
-1.40277117655 hv aw
-3.16166382826 hv ax
-4.06933929543 hv axh
-1.45054356956 hv axr
-1.13785154259 hv ay
-3.28326628319 hv b
-3.33972456584 hv bcl
-3.70453193063 hv ch
-3.23549389018 hv d
-3.01834664923 hv dcl
-3.24417977982 hv dh
-3.34841045547 hv dx
-0.94241902573 hv eh
-3.64373070317 hv el
-3.16166382826 hv em
-3.82179144075 hv en
-5.20719083802 hv eng
-3.66110248244 hv epi
-1.5070018522 hv er
-1.9847257823 hv ey
-3.27458039355 hv f
-3.54384297233 hv g
-3.50041352414 hv gcl
-3.16166382826 hv h#
-3.16166382826 hv hh
-3.76099021328 hv hv
-0.925047246454 hv ih
-1.22036749415 hv ix
-1.15522332186 hv iy
-3.61333008944 hv jh
-3.04006137332 hv k
-3.00097486995 hv kcl
-2.97491720104 hv l
-3.08349082151 hv m
-2.82725707719 hv n
-3.54384297233 hv ng
-3.79139082702 hv nx
-1.35934172836 hv ow
-4.13882641254 hv oy
-3.20943622127 hv p
-3.66978837208 hv pau
-3.19640738681 hv pcl
-3.16166382826 hv q
-3.16166382826 hv r
-2.83160002201 hv s
-3.50041352414 hv sh
-3.02268959405 hv t
-2.86200063574 hv tcl
-3.74796137883 hv th
-1.92826749965 hv uh
-1.88049510664 hv uw
-1.9847257823 hv ux
-3.32235278656 hv v
-2.46244971239 hv w
-1.76323559653 hv y
-3.16166382826 hv z
-4.44717549469 hv zh
-3.23115101645 ih aa
-2.97491727213 ih ae
-3.45264120222 ih ah
-3.93036513231 ih ao
-3.66110255353 ih aw
-2.49719334203 ih ax
-3.9737945805 ih axh
-1.7371779987 ih axr
-3.23983690609 ih ay
-3.18772156826 ih b
-2.07592769459 ih bcl
-3.60898721571 ih ch
-3.13994917525 ih d
-1.26379701343 ih dcl
-2.38427677674 ih dh
-1.54608842667 ih dx
-3.45264120222 ih eh
-3.45264120222 ih el
-4.4298037865 ih em
-3.72624672582 ih en
-3.93036513231 ih eng
-3.93036513231 ih epi
-2.04118413604 ih er
-2.88805837575 ih ey
-1.59820376449 ih f
-3.4482982574 ih g
-1.46791541992 ih gcl
-3.93036513231 ih h#
-3.23115101645 ih hh
-2.6491964107 ih hv
-2.89674426538 ih ih
-2.56668045914 ih ix
-3.23115101645 ih iy
-3.23115101645 ih jh
-3.93036513231 ih k
-1.22905345488 ih kcl
-1.21602462042 ih l
-1.32025529608 ih m
-0.846874310801 ih n
-1.1899669515 ih ng
-1.65900499196 ih nx
-3.23115101645 ih ow
-4.04328169761 ih oy
-3.11389150634 ih p
-3.93036513231 ih pau
-1.55911726112 ih pcl
-1.95866818447 ih q
-1.51134486811 ih r
-0.977162655372 ih s
-1.394085358 ih sh
-3.93036513231 ih t
-1.25511112379 ih tcl
-1.9412964052 ih th
-3.82613445666 ih uh
-3.80007678774 ih uw
-3.93036513231 ih ux
-1.51568781293 ih v
-2.53193690059 ih w
-2.75342708636 ih y
-1.09442216549 ih z
-2.4667927283 ih zh
-3.32235278656 ix aa
-4.16922702627 ix ae
-3.50475646896 ix ah
-3.1269202697 ix ao
-3.69150309618 ix aw
-3.1269202697 ix ax
-4.30820126048 ix axh
-2.77079879454 ix axr
-3.69150309618 ix ay
-3.52212824824 ix b
-1.69374847942 ix bcl
-3.94339389568 ix ch
-3.47435585523 ix d
-1.12916565295 ix dcl
-2.01512639603 ix dh
-1.60688958304 ix dx
-3.69150309618 ix eh
-3.32235278656 ix el
-4.76421046648 ix em
-4.0606534058 ix en
-3.69150309618 ix eng
-3.69150309618 ix epi
-3.63070186871 ix er
-3.69150309618 ix ey
-1.74586381725 ix f
-3.78270493738 ix g
-1.49397301775 ix gcl
-2.16278651988 ix h#
-3.1269202697 ix hh
-2.31913253336 ix hv
-3.69150309618 ix ih
-2.99228898031 ix ix
-3.21377916608 ix iy
-3.47001291041 ix jh
-3.69150309618 ix k
-1.05099264621 ix kcl
-1.73717792761 ix l
-1.39842823173 ix m
-0.647098778036 ix n
-1.26813988716 ix ng
-1.87615216182 ix nx
-3.47001291041 ix ow
-4.37768837758 ix oy
-3.44829818631 ix p
-2.88805830466 ix pau
-1.5982036934 ix pcl
-1.81535093436 ix q
-2.29307486445 ix r
-1.02927792211 ix s
-1.81100798954 ix sh
-4.16922702627 ix t
-1.20299571487 ix tcl
-1.85443743773 ix th
-4.16054113663 ix uh
-4.13448346772 ix uw
-4.16922702627 ix ux
-1.54608835558 ix v
-2.18884418879 ix w
-2.34084725746 ix y
-1.0727073703 ix z
-2.84462885647 ix zh
-1.82403682399 iy aa
-1.97169694784 iy ae
-2.05855584422 iy ah
-2.22793069216 iy ao
-2.60576689142 iy aw
-1.94563927893 iy ax
-3.86522088894 iy axh
-2.18015829915 iy axr
-2.44942087793 iy ay
-3.07914787669 iy b
-1.88483805146 iy bcl
-3.50041352414 iy ch
-3.03137548368 iy d
-1.37237056281 iy dcl
-1.93695338929 iy dh
-1.60688958304 iy dx
-1.89786688592 iy eh
-2.92280186321 iy el
-4.32123009494 iy em
-3.48738468968 iy en
-3.12257732488 iy eng
-2.8533147461 iy epi
-2.31478958854 iy er
-1.97169694784 iy ey
-1.5982036934 iy f
-3.33972456584 iy g
-1.68071964497 iy gcl
-1.28985461125 iy h#
-2.2583313059 iy hh
-1.75454970689 iy hv
-1.6894055346 iy ih
-1.26379694234 iy ix
-3.26589450391 iy iy
-3.40921168294 iy jh
-3.96510861978 iy k
-1.31591228017 iy kcl
-1.48963007293 iy l
-1.42448590064 iy m
-1.34196994908 iy n
-1.37237056281 iy ng
-2.64485339479 iy nx
-1.85443743773 iy ow
-3.48738468968 iy oy
-3.00531781477 iy p
-1.7806073758 iy pau
-1.38105645245 iy pcl
-1.368027618 iy q
-1.82837976881 iy r
-1.21602454933 iy s
-1.97169694784 iy sh
-2.81857118755 iy t
-1.19865277005 iy tcl
-2.22793069216 iy th
-3.26589450391 iy uh
-3.96510861978 iy uw
-3.48738468968 iy ux
-1.5070018522 iy v
-1.6199184175 iy w
-2.05855584422 iy y
-1.18996688041 iy z
-2.92280186321 iy zh
-1.61557547268 jh aa
-1.78929326544 jh ae
-1.42014295582 jh ah
-1.65466197605 jh ao
-3.30498100728 jh aw
-2.0759276235 jh ax
-1.53740246594 jh axh
-1.39842823173 jh axr
-1.78929326544 jh ay
-2.77514173936 jh b
-2.13238590614 jh bcl
-3.30498100728 jh ch
-2.72736934635 jh d
-1.3463128939 jh dcl
-2.13238590614 jh dh
-2.84028591165 jh dx
-1.16825215632 jh eh
-2.60576689142 jh el
-2.83160002201 jh em
-1.63294725196 jh en
-4.69906629419 jh eng
-1.78929326544 jh epi
-1.69374847942 jh er
-2.19318713361 jh ey
-2.83160002201 jh f
-3.0357184285 jh g
-2.35387609192 jh gcl
-1.38974234209 jh h#
-2.26701719553 jh hh
-2.46244971239 jh hv
-1.17693804596 jh ih
-0.720928839959 jh ix
-1.32894111462 jh iy
-3.10520554561 jh jh
-2.5319368295 jh k
-1.87615216182 jh kcl
-2.13238590614 jh l
-2.57536627769 jh m
-2.60576689142 jh n
-3.0357184285 jh ng
-3.28326628319 jh nx
-2.13238590614 jh ow
-1.53740246594 jh oy
-2.70131167744 jh p
-1.87615216182 jh pau
-1.84575154809 jh pcl
-2.46244971239 jh q
-2.35387609192 jh r
-2.19318713361 jh s
-2.99228898031 jh sh
-2.51456505022 jh t
-1.5070018522 jh tcl
-2.35387609192 jh th
-2.0759276235 jh uh
-1.90655277556 jh uw
-1.33762700426 jh ux
-3.30498100728 jh v
-2.13238590614 jh w
-1.90655277556 jh y
-2.54496566395 jh z
-3.93905095086 jh zh
-1.22036749415 k aa
-1.31591228017 k ae
-1.37237056281 k ah
-1.4375147351 k ao
-1.78929326544 k aw
-1.50265890739 k ax
-2.55799449841 k axh
-1.79797915508 k axr
-2.06724173386 k ay
-3.19640738681 k b
-3.8782497234 k bcl
-3.61767303425 k ch
-3.1486349938 k d
-2.92714480803 k dcl
-2.48416443649 k dh
-3.26155155909 k dx
-1.60254663822 k eh
-1.29419755607 k el
-2.01512639603 k em
-1.93261044447 k en
-2.92714480803 k eng
-2.84028591165 k epi
-1.68506258978 k er
-1.54608835558 k ey
-2.11067118205 k f
-3.45698407595 k g
-3.8782497234 k gcl
-1.69374847942 k h#
-2.18884418879 k hh
-3.40486873812 k hv
-1.65900492087 k ih
-1.06836442548 k ix
-1.59386074858 k iy
-3.52647119305 k jh
-2.95320247694 k k
-2.91411597357 k kcl
-1.15088037704 k l
-2.92714480803 k m
-2.92714480803 k n
-3.45698407595 k ng
-3.70453193063 k nx
-1.64597608641 k ow
-2.09329940277 k oy
-3.12257732488 k p
-2.44942087793 k pau
-3.8782497234 k pcl
-2.12370001651 k q
-1.1856239356 k r
-1.02059203247 k s
-1.99341167194 k sh
-3.8782497234 k t
-2.26701719553 k tcl
-2.70565462226 k th
-1.87615216182 k uh
-2.38861965047 k uw
-1.86746627218 k ux
-3.0357184285 k v
-1.25076810788 k w
-1.56346013485 k y
-2.84028591165 k z
-4.36031659831 k zh
-3.63504481353 kcl aa
-3.63070186871 kcl ae
-3.44395524149 kcl ah
-3.71756076509 kcl ao
-4.12579757808 kcl aw
-3.43961229667 kcl ax
-3.91733622677 kcl axh
-3.60030125498 kcl axr
-3.70453193063 kcl ay
-2.327818423 kcl b
-3.91733622677 kcl bcl
-2.51890799504 kcl ch
-2.06724173386 kcl d
-3.38749695885 kcl dcl
-2.14975768542 kcl dh
-3.71756076509 kcl dx
-3.44395524149 kcl eh
-4.01288101279 kcl el
-4.89449881105 kcl em
-4.19094175037 kcl en
-5.57634114764 kcl eng
-3.91733622677 kcl epi
-3.76099021328 kcl er
-3.91733622677 kcl ey
-2.3495331471 kcl f
-2.40164848492 kcl g
-3.91733622677 kcl gcl
-2.48850738131 kcl h#
-3.2181221109 kcl hh
-4.1301405229 kcl hv
-3.2181221109 kcl ih
-3.91733622677 kcl ix
-3.44395524149 kcl iy
-2.8055423531 kcl jh
-0.0781730067426 kcl k
-3.37012517957 kcl kcl
-3.91733622677 kcl l
-2.327818423 kcl m
-2.327818423 kcl n
-3.91299328195 kcl ng
-4.16054113663 kcl nx
-3.76967610292 kcl ow
-4.50797672216 kcl oy
-1.95866811338 kcl p
-2.74474112563 kcl pau
-3.56555769643 kcl pcl
-3.2181221109 kcl q
-3.31800984174 kcl r
-1.59386074858 kcl s
-1.94129633411 kcl sh
-1.23339632861 kcl t
-3.91733622677 kcl tcl
-2.68828284298 kcl th
-3.91733622677 kcl uh
-4.26477181229 kcl uw
-3.83482027521 kcl ux
-2.87937241502 kcl v
-2.87937241502 kcl w
-3.2181221109 kcl y
-3.91733622677 kcl z
-4.81632580431 kcl zh
-1.49397301775 l aa
-1.32025522499 l ae
-1.64163314159 l ah
-1.50265890739 l ao
-1.79797915508 l aw
-1.1856239356 l ax
-3.91733622677 l axh
-1.82837976881 l axr
-1.2768257768 l ay
-3.13126321452 l b
-2.16278651988 l bcl
-3.9477368405 l ch
-3.9477368405 l d
-1.33328405944 l dcl
-2.10632823723 l dh
-2.14975768542 l dx
-1.33328405944 l eh
-3.9477368405 l el
-2.83160002201 l em
-2.99228898031 l en
-5.05518776935 l eng
-2.58405216732 l epi
-1.88483805146 l er
-1.27248283198 l ey
-1.75020676207 l f
-3.39183990366 l g
-2.7143405119 l gcl
-1.71546320352 l h#
-2.99228898031 l hh
-2.48416443649 l hv
-1.21602454933 l ih
-1.2551110527 l ix
-0.868588963807 l iy
-3.46132702077 l jh
-2.88805830466 l k
-1.91089572037 l kcl
-3.9477368405 l l
-1.75454970689 l m
-2.48416443649 l n
-3.39183990366 l ng
-3.63938775835 l nx
-1.49397301775 l ow
-2.40164848492 l oy
-3.0574331526 l p
-2.33216136782 l pau
-1.82837976881 l pcl
-2.08461351314 l q
-2.37993376083 l r
-1.70677731388 l s
-2.58405216732 l sh
-2.87068652538 l t
-1.65900492087 l tcl
-2.19318713361 l th
-1.99775461675 l uh
-2.02815523049 l uw
-2.07158467868 l ux
-2.13238590614 l v
-1.82837976881 l w
-2.16278651988 l y
-1.67637670015 l z
-3.24852272464 l zh
-1.64597608641 m aa
-1.41145706619 m ae
-1.24208221824 m ah
-1.5287165763 m ao
-2.31913253336 m aw
-1.31591228017 m ax
-3.83916322002 m axh
-1.79363621026 m axr
-1.3245981698 m ay
-2.60576689142 m b
-1.47225829365 m bcl
-3.37881106921 m ch
-3.13994910416 m d
-2.02381228567 m dcl
-1.83272271363 m dh
-3.02268959405 m dx
-1.31156933535 m eh
-2.22358774734 m el
-4.19962764 m em
-2.60576689142 m en
-4.88146997659 m eng
-1.9847257823 m epi
-1.85009449291 m er
-1.1856239356 m ey
-2.02381228567 m f
-3.2181221109 m g
-2.47547854685 m gcl
-1.33328405944 m h#
-2.47547854685 m hh
-2.27136014035 m hv
-1.40277117655 m ih
-1.11613681849 m ix
-1.31591228017 m iy
-3.28760922801 m jh
-2.7143405119 m k
-2.01078345121 m kcl
-1.91958161001 m l
-2.75776996009 m m
-2.02381228567 m n
-3.2181221109 m ng
-3.46566996559 m nx
-1.5287165763 m ow
-2.34519020228 m oy
-3.83916322002 m p
-2.01078345121 m pau
-1.11613681849 m pcl
-2.20621596807 m q
-2.34519020228 m r
-1.74152087243 m s
-2.60576689142 m sh
-3.83916322002 m t
-1.76323559653 m tcl
-2.72302640153 m th
-2.99228898031 m uh
-1.78495032062 m uw
-2.03684112013 m ux
-2.79685646346 m v
-2.02381228567 m w
-1.86746627218 m y
-1.46791534883 m z
-4.12145463326 m zh
-1.54608835558 n aa
-1.97603989266 n ae
-1.65900492087 n ah
-2.02815523049 n ao
-1.97603989266 n aw
-1.67637670015 n ax
-4.09539696435 n axh
-2.10632823723 n axr
-1.88049510664 n ay
-4.09539696435 n b
-1.69374847942 n bcl
-2.69696873262 n ch
-1.8935239411 n d
-1.05967853584 n dcl
-1.48963007293 n dh
-3.13994910416 n dx
-1.60688958304 n eh
-2.37124787119 n el
-4.09539696435 n em
-3.61767303425 n en
-5.0421589349 n eng
-2.11501412687 n epi
-2.50153621576 n er
-1.95866811338 n ey
-1.78929326544 n f
-3.37881106921 n g
-2.31044664373 n gcl
-1.38974234209 n h#
-2.66222517407 n hh
-1.76757854135 n hv
-1.48963007293 n ih
-1.37237056281 n ix
-1.38974234209 n iy
-2.37124787119 n jh
-4.09539696435 n k
-1.73283498279 n kcl
-1.81100798954 n l
-1.73283498279 n m
-2.66222517407 n n
-3.37881106921 n ng
-3.62635892389 n nx
-1.58951780377 n ow
-2.69696873262 n oy
-3.04440431814 n p
-1.91958161001 n pau
-1.89786688592 n pcl
-1.47225829365 n q
-2.05855584422 n r
-1.15088037704 n s
-1.95866811338 n sh
-2.63182456033 n t
-0.864246018987 n tcl
-2.54930860877 n th
-3.75664726846 n uh
-2.50153621576 n uw
-1.89786688592 n ux
-2.25398836108 n v
-1.83706565845 n w
-1.93261044447 n y
-1.34196994908 n z
-2.91845891839 n zh
-2.14975758403 ng aa
-2.90108703772 ng ae
-2.0976422462 ng ah
-2.26267414932 ng ao
-2.67959685195 ng aw
-2.0976422462 ng ax
-3.48738458829 ng axh
-2.0976422462 ng axr
-2.75342691388 ng ay
-2.70131157605 ng b
-1.60688948165 ng bcl
-3.12257722349 ng ch
-2.90108703772 ng d
-1.59386064719 ng dcl
-1.53740236455 ng dh
-2.76645574833 ng dx
-2.33650421125 ng eh
-3.37881096782 ng el
-3.94339379429 ng em
-3.23983673361 ng en
-4.62523613088 ng eng
-2.0976422462 ng epi
-2.14975758403 ng er
-3.37881096782 ng ey
-1.58083181274 ng f
-1.85878028115 ng g
-1.08573610337 ng gcl
-0.951104813977 ng h#
-1.98038273609 ng hh
-1.46791524744 ng hv
-1.53740236455 ng ih
-1.25511095131 ng ix
-2.05421279801 ng iy
-3.03137538229 ng jh
-2.14975758403 ng k
-0.925047145063 ng kcl
-1.81100788815 ng l
-1.78495021923 ng m
-1.9152385638 ng n
-2.96188826519 ng ng
-3.20943611987 ng nx
-2.67959685195 ng ow
-3.5568717054 ng oy
-2.62748151412 ng p
-1.70677721249 ng pau
-1.70677721249 ng pcl
-1.50265880599 ng q
-1.52871647491 ng r
-1.42014285443 ng s
-1.88483795007 ng sh
-2.44073488691 ng t
-1.4592293578 ng tcl
-2.26267414932 ng th
-3.33972446444 ng uh
-3.31366679553 ng uw
-2.88371525845 ng ux
-1.94563917754 ng v
-1.35499868215 ng w
-1.72414899176 ng y
-1.52871647491 ng z
-3.37881096782 ng zh
-1.70243430263 nx aa
-2.08895639153 nx ae
-1.42448583421 nx ah
-1.81100792311 nx ao
-2.08895639153 nx aw
-0.925047180026 nx ax
-2.653539218 nx axh
-0.929390124845 nx axr
-1.90220976431 nx ay
-3.40921161651 nx b
-3.46566989916 nx bcl
-3.83047726396 nx ch
-3.3614392235 nx d
-3.14429198255 nx dcl
-3.37012511314 nx dh
-3.4743557888 nx dx
-1.58951773734 nx eh
-1.70243430263 nx el
-4.65129383476 nx em
-3.13126314809 nx en
-5.33313617134 nx eng
-3.78704781577 nx epi
-1.29419748964 nx er
-1.73283491637 nx ey
-3.40052572687 nx f
-3.66978830565 nx g
-3.62635885746 nx gcl
-3.1790355411 nx h#
-3.77401898131 nx hh
-3.88693554661 nx hv
-0.968476628216 nx ih
-0.573268649684 nx ix
-0.846874173283 nx iy
-3.73927542276 nx jh
-3.16600670665 nx k
-3.12692020328 nx kcl
-3.10086253436 nx l
-3.20943615484 nx m
-2.95320241051 nx n
-3.66978830565 nx ng
-3.91733616034 nx nx
-2.28438890838 nx ow
-3.13126314809 nx oy
-3.33538155459 nx p
-3.79573370541 nx pau
-3.32235272013 nx pcl
-2.653539218 nx q
-3.07480486545 nx r
-2.95754535533 nx s
-3.62635885746 nx sh
-3.14863492737 nx t
-2.98794596907 nx tcl
-3.87390671215 nx th
-3.13126314809 nx uh
-4.021566836 nx uw
-3.59161529891 nx ux
-3.44829811988 nx v
-3.40052572687 nx w
-2.653539218 nx y
-3.1790355411 nx z
-4.57312082801 nx zh
-2.11935707169 ow aa
-2.34519020228 ow ae
-2.34519020228 ow ah
-1.97603989266 ow ao
-2.56668038805 ow aw
-1.94998222375 ow ax
-3.6046441998 ow axh
-2.40599142974 ow axr
-2.34519020228 ow ay
-2.81857118755 ow b
-1.66769081051 ow bcl
-3.239836835 ow ch
-2.77079879454 ow d
-1.64597608641 ow dcl
-1.94998222375 ow dh
-1.52437363148 ow dx
-2.19753007843 ow eh
-3.04006137332 ow el
-3.51778530342 ow em
-3.51778530342 ow en
-4.74249574238 ow eng
-3.51778530342 ow epi
-2.81857118755 ow er
-2.81857118755 ow ey
-1.82837976881 ow f
-3.07914787669 ow g
-1.79363621026 ow gcl
-1.69374847942 ow h#
-2.67525400852 ow hh
-2.02815523049 ow hv
-2.15844357506 ow ih
-1.58083191413 ow ix
-2.67525400852 ow iy
-3.1486349938 ow jh
-2.57536627769 ow k
-1.24642516306 ow kcl
-1.03362086693 ow l
-1.3463128939 ow m
-0.977162584282 ow n
-2.67525400852 ow ng
-1.94998222375 ow nx
-2.81857118755 ow ow
-3.51778530342 ow oy
-2.74474112563 ow p
-2.11935707169 ow pau
-1.33328405944 ow pcl
-1.6199184175 ow q
-2.24095952662 ow r
-1.0944220944 ow s
-1.6199184175 ow sh
-2.55799449841 ow t
-1.3245981698 ow tcl
-1.58083191413 ow th
-3.45698407595 ow uh
-3.43092640704 ow uw
-3.00097486995 ow ux
-1.17259510114 ow v
-1.75020676207 ow w
-2.81857118755 ow y
-1.14653743222 ow z
-2.15844357506 ow zh
-2.783827629 oy aa
-2.08461351314 oy ae
-2.64051044997 oy ah
-2.08461351314 oy ao
-3.13126321452 oy aw
-2.783827629 oy ax
-3.44395524149 oy axh
-2.08461351314 oy axr
-2.70999756708 oy ay
-2.65788222925 oy b
-1.35065583872 oy bcl
-3.07914787669 oy ch
-2.61010983624 oy d
-1.67203375533 oy dcl
-1.67203375533 oy dh
-1.60688958304 oy dx
-2.47982149167 oy eh
-2.08461351314 oy el
-3.89996444749 oy em
-3.19640738681 oy en
-4.58180678408 oy eng
-3.0357184285 oy epi
-1.82837976881 oy er
-2.30610369891 oy ey
-2.64919633961 oy f
-2.91845891839 oy g
-1.67203375533 oy gcl
-2.42770615384 oy h#
-3.02268959405 oy hh
-3.13560615934 oy hv
-1.60688958304 oy ih
-1.35065583872 oy ix
-1.74152087243 oy iy
-2.98794603549 oy jh
-2.41467731938 oy k
-2.30610369891 oy kcl
-1.15088037704 oy l
-2.08461351314 oy m
-0.877274853445 oy n
-1.82837976881 oy ng
-1.60688958304 oy nx
-2.77514173936 oy ow
-3.5134423586 oy oy
-2.58405216732 oy p
-3.04440431814 oy pau
-1.67203375533 oy pcl
-1.23773927342 oy q
-2.32347547818 oy r
-0.729614729597 oy s
-1.42014295582 oy sh
-2.39730554011 oy t
-2.783827629 oy tcl
-3.12257732488 oy th
-3.29629511765 oy uh
-3.27023744873 oy uw
-2.84028591165 oy ux
-2.69696873262 oy v
-2.783827629 oy w
-1.67203375533 oy y
-1.04230675657 oy z
-3.82179144075 oy zh
-1.24642516306 p aa
-1.54608835558 p ae
-1.92826749965 p ah
-1.70243436906 p ao
-1.91523866519 p aw
-1.51134479702 p ax
-2.48416443649 p axh
-1.09876503922 p axr
-1.57214602449 p ay
-3.17469266271 p b
-3.23115094536 p bcl
-3.23549389018 p ch
-3.1269202697 p d
-3.23549389018 p dcl
-2.48416443649 p dh
-3.239836835 p dx
-1.415800011 p eh
-1.58517485895 p el
-4.41677488096 p em
-2.53627977431 p en
-5.09861721754 p eng
-3.55252886197 p epi
-1.34196994908 p er
-1.35065583872 p ey
-3.23549389018 p f
-3.71321782027 p g
-2.87068652538 p gcl
-1.88918099628 p h#
-2.75776996009 p hh
-3.23549389018 p hv
-1.39842823173 p ih
-1.36368467318 p ix
-1.39408528691 p iy
-3.50475646896 p jh
-2.93148775285 p k
-3.01400370441 p kcl
-0.885960743083 p l
-2.97491720104 p m
-2.6709110637 p n
-3.43526935185 p ng
-3.68281720654 p nx
-1.52437363148 p ow
-1.72849203797 p oy
-3.10086260079 p p
-2.75776996009 p pau
-3.71321782027 p pcl
-2.75776996009 p q
-0.816473625978 p r
-1.51134479702 p s
-2.75776996009 p sh
-2.91411597357 p t
-2.43639204348 p tcl
-2.6709110637 p th
-1.90220983074 p uh
-2.43639204348 p uw
-2.6014239466 p ux
-3.21377916608 p v
-2.1454147406 p w
-1.76323559653 p y
-3.23549389018 p z
-4.33860187421 p zh
-2.0759276235 pau aa
-2.01946934085 pau ae
-2.29741780927 pau ah
-1.85443743773 pau ao
-3.10086260079 pau aw
-1.70677731388 pau ax
-2.77514173936 pau axh
-3.25286566946 pau axr
-2.77514173936 pau ay
-1.18128099078 pau b
-2.40599142974 pau bcl
-3.04874726296 pau ch
-1.5982036934 pau d
-3.25286566946 pau dcl
-1.19865277005 pau dh
-2.6926257878 pau dx
-1.78929326544 pau eh
-3.25286566946 pau el
-3.86956383376 pau em
-2.77514173936 pau en
-4.55140617035 pau eng
-3.00531781477 pau epi
-2.77514173936 pau er
-2.77514173936 pau ey
-1.55911719003 pau f
-1.97169694784 pau g
-2.84462885647 pau gcl
-2.39730554011 pau h#
-1.22905338379 pau hh
-2.55365155359 pau hv
-1.73283498279 pau ih
-1.33328405944 pau ix
-2.29741780927 pau iy
-2.55365155359 pau jh
-1.54174541076 pau k
-2.34519020228 pau kcl
-2.01946934085 pau l
-1.32025522499 pau m
-1.28985461125 pau n
-2.88805830466 pau ng
-3.13560615934 pau nx
-2.74474112563 pau ow
-3.48304174486 pau oy
-1.92826749965 pau p
-3.01400370441 pau pau
-2.54062271913 pau pcl
-0.768701232969 pau q
-1.63729019678 pau r
-1.35499878354 pau s
-1.58083191413 pau sh
-1.48094418329 pau t
-3.25286566946 pau tcl
-1.88918099628 pau th
-3.26589450391 pau uh
-3.239836835 pau uw
-3.25286566946 pau ux
-2.55365155359 pau v
-1.12916565295 pau w
-1.70677731388 pau y
-2.29741780927 pau z
-3.79139082702 pau zh
-3.70018898582 pcl aa
-3.695846041 pcl ae
-3.70018898582 pcl ah
-3.78270493738 pcl ao
-4.19094175037 pcl aw
-2.77079879454 pcl ax
-3.72190370991 pcl axh
-3.24417977982 pcl axr
-3.76967610292 pcl ay
-2.04986995458 pcl b
-3.77401904774 pcl bcl
-2.68393989816 pcl ch
-2.44507793312 pcl d
-3.45264113113 pcl dcl
-2.08895645795 pcl dh
-3.78270493738 pcl dx
-3.53950002751 pcl eh
-4.07802518507 pcl el
-3.72190370991 pcl em
-4.25608592265 pcl en
-5.64148531992 pcl eng
-4.09539696435 pcl epi
-3.24417977982 pcl er
-3.70018898582 pcl ey
-2.49285032612 pcl f
-2.68393989816 pcl g
-3.93470800604 pcl gcl
-1.95432516856 pcl h#
-3.24417977982 pcl hh
-4.19528469519 pcl hv
-3.42658346222 pcl ih
-2.77079879454 pcl ix
-3.38749695885 pcl iy
-2.77079879454 pcl jh
-2.29307486445 pcl k
-3.43526935185 pcl kcl
-3.40921168294 pcl l
-2.23227363698 pcl m
-2.11067118205 pcl n
-3.97813745423 pcl ng
-4.22568530892 pcl nx
-3.83482027521 pcl ow
-4.57312089444 pcl oy
-0.0608012274665 pcl p
-2.54930860877 pcl pau
-3.63070186871 pcl pcl
-2.77079879454 pcl q
-3.24417977982 pcl r
-1.88483805146 pcl s
-2.68393989816 pcl sh
-1.5287165763 pcl t
-3.29629511765 pcl tcl
-2.68393989816 pcl th
-4.35597365349 pcl uh
-4.32991598458 pcl uw
-3.89996444749 pcl ux
-2.61010983624 pcl v
-2.61010983624 pcl w
-4.05631046098 pcl y
-2.77079879454 pcl z
-4.88146997659 pcl zh
-1.20733865969 q aa
-1.08139325994 q ae
-1.24642516306 q ah
-1.16825215632 q ao
-1.69374847942 q aw
-1.26813988716 q ax
-3.03137548368 q axh
-2.26701719553 q axr
-1.39842823173 q ay
-3.03137548368 q b
-2.77514173936 q bcl
-3.25286566946 q ch
-2.88371535984 q d
-3.03137548368 q dcl
-3.25286566946 q dh
-2.90977302875 q dx
-0.964133749825 q eh
-2.88371535984 q el
-4.08671107471 q em
-1.85443743773 q en
-4.7685534113 q eng
-3.22246505572 q epi
-1.81100798954 q er
-1.32894111462 q ey
-2.33216136782 q f
-3.25286566946 q g
-3.73058959955 q gcl
-2.21055891289 q h#
-2.68828284298 q hh
-2.55365155359 q hv
-1.08139325994 q ih
-1.01190614283 q ix
-1.37671350763 q iy
-3.17469266271 q jh
-2.77514173936 q k
-2.77514173936 q kcl
-1.46357240401 q l
-1.8023220999 q m
-2.00644050639 q n
-3.10520554561 q ng
-3.35275340029 q nx
-1.34196994908 q ow
-2.16278651988 q oy
-2.77514173936 q p
-2.40599142974 q pau
-3.73058959955 q pcl
-2.75342701527 q q
-2.00644050639 q r
-2.36690492637 q s
-3.25286566946 q sh
-2.58405216732 q t
-3.25286566946 q tcl
-3.3093239521 q th
-3.48304174486 q uh
-3.25286566946 q uw
-3.03137548368 q ux
-3.03137548368 q v
-1.68506258978 q w
-2.02381228567 q y
-3.73058959955 q z
-4.00853806797 q zh
-1.42448590064 r aa
-1.32894111462 r ae
-1.40277117655 r ah
-1.75454970689 r ao
-1.99341167194 r aw
-1.67203375533 r ax
-3.1269202697 r axh
-1.97603989266 r axr
-1.37237056281 r ay
-3.28760922801 r b
-1.91089572037 r bcl
-3.9694515646 r ch
-3.239836835 r d
-1.37671350763 r dcl
-2.10632823723 r dh
-1.53305952112 r dx
-1.17259510114 r eh
-2.26267425072 r el
-2.29741780927 r em
-2.93148775285 r en
-5.21153378284 r eng
-3.66544542726 r epi
-2.79685646346 r er
-1.30288344571 r ey
-2.02381228567 r f
-3.54818591715 r g
-2.13238590614 r gcl
-2.26267425072 r h#
-2.61010983624 r hh
-2.6926257878 r hv
-1.1856239356 r ih
-1.07705031512 r ix
-0.881617798264 r iy
-3.27023744873 r jh
-3.04440431814 r k
-1.75889265171 r kcl
-1.81535093436 r l
-1.6199184175 r m
-1.89786688592 r n
-3.54818591715 r ng
-2.40164848492 r nx
-1.40277117655 r ow
-2.37993376083 r oy
-3.21377916608 r p
-3.01834664923 r pau
-2.07158467868 r pcl
-1.95866811338 r q
-2.95320247694 r r
-1.79797915508 r s
-2.23227363698 r sh
-3.02703253887 r t
-1.71546320352 r tcl
-2.93148775285 r th
-2.64919633961 r uh
-1.82403682399 r uw
-1.67637670015 r ux
-2.61010983624 r v
-2.06289878904 r w
-2.64919633961 r y
-2.21490185771 r z
-3.1269202697 r zh
-2.1627863988 s aa
-2.11501400579 s ae
-1.50265878631 s ah
-1.78929314437 s ao
-2.97926002478 s aw
-1.49397289667 s ax
-1.98906860604 s axh
-1.97603977159 s axr
-1.69374835835 s ay
-3.42224039632 s b
-1.85009437183 s bcl
-4.09105389845 s ch
-3.37446800331 s d
-1.98906860604 s dcl
-1.98906860604 s dh
-3.48738456861 s dx
-1.37671338656 s eh
-2.5493084877 s el
-2.97926002478 s em
-2.19318701254 s en
-3.61332996836 s eng
-1.24642504199 s epi
-1.79363608919 s er
-1.96301093713 s ey
-1.75889253063 s f
-3.68281708547 s g
-2.24095940555 s gcl
-1.02493485622 s h#
-1.94129621303 s hh
-3.13560603827 s hv
-1.49397289667 s ih
-1.12047964224 s ix
-1.48528700703 s iy
-3.75230420257 s jh
-3.17903548646 s k
-1.17693792488 s kcl
-1.86746615111 s l
-2.69262566673 s m
-2.66222505299 s n
-3.68281708547 s ng
-3.93036494015 s nx
-1.80232197882 s ow
-2.60142382553 s oy
-3.3484103344 s p
-1.73717780654 s pau
-1.20733853862 s pcl
-1.8891808752 s q
-2.34953302602 s r
-2.97057413514 s s
-2.66222505299 s sh
-3.39183978259 s t
-0.729614608523 s tcl
-2.40164836385 s th
-2.77079867347 s uh
-2.47982137059 s uw
-2.08895633688 s ux
-3.24852260356 s v
-2.10632811616 s w
-2.57536615661 s y
-3.13560603827 s z
-4.58614960782 s zh
-1.6199184175 sh aa
-1.95866811338 sh ae
-1.98906872712 sh ah
-1.56780307967 sh ao
-2.14107179578 sh aw
-1.6199184175 sh ax
-2.46679265721 sh axh
-1.98906872712 sh axr
-2.24530247144 sh ay
-2.84028591165 sh b
-3.4222405174 sh bcl
-3.4222405174 sh ch
-2.79251351864 sh d
-2.24530247144 sh dcl
-3.4222405174 sh dh
-2.90543008393 sh dx
-1.54608835558 sh eh
-1.69809142424 sh el
-4.08236812989 sh em
-0.885960743083 sh en
-3.4222405174 sh eng
-1.29854050089 sh epi
-1.48094418329 sh er
-1.85443743773 sh ey
-1.92826749965 sh f
-3.10086260079 sh g
-2.30610369891 sh gcl
-1.78495032062 sh h#
-3.4222405174 sh hh
-3.31800984174 sh hv
-1.31591228017 sh ih
-0.699214115864 sh ix
-1.06402148066 sh iy
-3.17034971789 sh jh
-2.59708100178 sh k
-2.24530247144 sh kcl
-1.95866811338 sh l
-2.57536627769 sh m
-2.57536627769 sh n
-3.10086260079 sh ng
-3.34841045547 sh nx
-1.69809142424 sh ow
-3.695846041 sh oy
-2.76645584972 sh p
-2.46679265721 sh pau
-2.18884418879 sh pcl
-2.9445165873 sh q
-1.75020676207 sh r
-1.98906872712 sh s
-3.0574331526 sh sh
-2.57970922251 sh t
-1.22471043897 sh tcl
-2.37993376083 sh th
-1.63729019678 sh uh
-2.24530247144 sh uw
-1.65031903123 sh ux
-2.30610369891 sh v
-2.83160002201 sh w
-2.30610369891 sh y
-2.46679265721 sh z
-4.00419512315 sh zh
-1.53305952112 t aa
-1.43317179028 t ae
-1.66769081051 t ah
-1.66334786569 t ao
-2.50153621576 t aw
-1.50265890739 t ax
-1.54608835558 t axh
-1.35499878354 t axr
-1.48094418329 t ay
-3.35709634511 t b
-2.72302640153 t bcl
-3.77836199256 t ch
-3.3093239521 t d
-3.09217671115 t dcl
-3.19640738681 t dh
-3.4222405174 t dx
-1.30288344571 t eh
-3.05309020778 t el
-2.9445165873 t em
-2.46679265721 t en
-3.89562150267 t eng
-2.72302640153 t epi
-1.64163314159 t er
-1.45488651438 t ey
-2.01078345121 t f
-3.61767303425 t g
-2.66656811889 t gcl
-1.28551166643 t h#
-1.96735400302 t hh
-2.783827629 t hv
-1.28551166643 t ih
-0.916361356816 t ix
-1.30722639053 t iy
-3.68716015136 t jh
-3.11389143525 t k
-2.327818423 t kcl
-2.783827629 t l
-2.85765769092 t m
-3.89562150267 t n
-3.61767303425 t ng
-3.86522088894 t nx
-1.98038283748 t ow
-2.783827629 t oy
-3.28326628319 t p
-1.8935239411 t pau
-3.19640738681 t pcl
-1.87615216182 t q
-1.0032202532 t r
-1.25945399752 t s
-2.46679265721 t sh
-3.09651965597 t t
-3.05309020778 t tcl
-3.89562150267 t th
-2.03249817531 t uh
-1.69809142424 t uw
-1.12482270813 t ux
-3.19640738681 t v
-1.8935239411 t w
-2.40599142974 t y
-3.1269202697 t z
-4.52100555661 t zh
-3.65241659281 tcl aa
-3.10520554561 tcl ae
-3.65241659281 tcl ah
-3.10520554561 tcl ao
-4.14316935736 tcl aw
-3.21377916608 tcl ax
-4.45586138433 tcl axh
-3.61767303425 tcl axr
-3.72190370991 tcl ay
-1.81969387917 tcl b
-3.5829294757 tcl bcl
-0.907675467178 tcl ch
-1.74152087243 tcl d
-3.5829294757 tcl dcl
-1.62426136232 tcl dh
-3.73493254437 tcl dx
-3.36143928993 tcl eh
-4.0606534058 tcl el
-4.91187059033 tcl em
-2.36690492637 tcl en
-5.59371292691 tcl eng
-4.04762457134 tcl epi
-3.77836199256 tcl er
-3.65241659281 tcl ey
-2.03684112013 tcl f
-2.33650431264 tcl g
-4.0606534058 tcl gcl
-1.53305952112 tcl h#
-2.56668038805 tcl hh
-2.38861965047 tcl hv
-3.01834664923 tcl ih
-2.66222517407 tcl ix
-3.33972456584 tcl iy
-2.56668038805 tcl jh
-1.82403682399 tcl k
-4.0606534058 tcl kcl
-2.17147240952 tcl l
-1.95432516856 tcl m
-2.0542128994 tcl n
-3.93036506122 tcl ng
-4.17791291591 tcl nx
-4.0606534058 tcl ow
-4.52534850143 tcl oy
-1.88483805146 tcl p
-2.01946934085 tcl pau
-3.5829294757 tcl pcl
-1.8935239411 tcl q
-2.28873191963 tcl r
-1.11613681849 tcl s
-2.40599142974 tcl sh
-0.238861965047 tcl t
-3.24852272464 tcl tcl
-2.77948468418 tcl th
-4.30820126048 tcl uh
-4.28214359157 tcl uw
-3.85219205448 tcl ux
-2.82725707719 tcl v
-2.33650431264 tcl w
-2.48850738131 tcl y
-2.9445165873 tcl z
-4.83369758358 tcl zh
-3.17469266271 th aa
-1.8935239411 th ae
-2.05855584422 th ah
-1.65466197605 th ao
-1.77626443098 th aw
-1.415800011 th ax
-2.13238590614 th axh
-1.58083191413 th axr
-2.69696873262 th ay
-2.55365155359 th b
-1.99775461675 th bcl
-2.97491720104 th ch
-2.50587916058 th d
-1.50265890739 th dcl
-2.21924480253 th dh
-2.61879572588 th dx
-1.60688958304 th eh
-3.17469266271 th el
-3.79573377183 th em
-3.17469266271 th en
-3.17469266271 th eng
-1.62860430714 th epi
-1.33328405944 th er
-2.13238590614 th ey
-1.7111202587 th f
-2.81422824273 th g
-2.47547854685 th gcl
-1.45054356956 th h#
-1.74152087243 th hh
-3.17469266271 th hv
-0.80778773634 th ih
-1.12047976331 th ix
-1.12047976331 th iy
-2.88371535984 th jh
-2.31044664373 th k
-1.7111202587 th kcl
-1.8935239411 th l
-3.17469266271 th m
-2.327818423 th n
-2.81422824273 th ng
-3.06177609742 th nx
-3.17469266271 th ow
-3.40921168294 th oy
-2.47982149167 th p
-1.77626443098 th pau
-1.55911719003 th pcl
-1.81100798954 th q
-0.890303687902 th r
-1.81100798954 th s
-2.69696873262 th sh
-2.29307486445 th t
-1.99775461675 th tcl
-3.01834664923 th th
-3.17469266271 th uh
-3.16600677307 th uw
-2.05855584422 th ux
-1.85009449291 th v
-2.13238590614 th w
-1.99775461675 th y
-2.327818423 th z
-3.71756076509 th zh
-3.00097481475 uh aa
-2.87068647018 uh ae
-2.875029415 uh ah
-2.95754536656 uh ao
-3.00097481475 uh aw
-2.04552695457 uh ax
-3.67847420652 uh axh
-2.84028585645 uh axr
-2.94451653211 uh ay
-2.89240119428 uh b
-1.63729014158 uh bcl
-3.31366684172 uh ch
-2.84462880127 uh d
-0.586297495371 uh dcl
-2.04552695457 uh dh
-0.938076025713 uh dx
-2.7143404567 uh eh
-3.25286561426 uh el
-4.13448341252 uh em
-3.43092635184 uh en
-4.81632574911 uh eng
-3.27023739353 uh epi
-2.30176069889 uh er
-3.00097481475 uh ey
-2.04552695457 uh f
-3.15297788342 uh g
-2.15410057504 uh gcl
-2.66222511887 uh h#
-3.00097481475 uh hh
-2.30176069889 uh hv
-2.6014238914 uh ih
-2.52325088466 uh ix
-2.56233738803 uh iy
-3.22246500052 uh jh
-2.64919628441 uh k
-0.68184228139 uh kcl
-1.04230670137 uh l
-1.63729014158 uh m
-2.04552695457 uh n
-3.15297788342 uh ng
-3.00097481475 uh nx
-3.00097481475 uh ow
-3.74796132363 uh oy
-2.81857113235 uh p
-3.27892328317 uh pau
-2.30176069889 uh pcl
-2.15410057504 uh q
-1.76757848615 uh r
-1.50700179701 uh s
-1.76757848615 uh sh
-2.63182450514 uh t
-1.31156928015 uh tcl
-3.00097481475 uh th
-3.53081408268 uh uh
-3.50475641376 uh uw
-3.07480487668 uh ux
-2.04552695457 uh v
-1.95866805819 uh w
-3.00097481475 uh y
-1.40711406617 uh z
-4.05631040578 uh zh
-1.62860430714 uw aa
-1.79363621026 uw ae
-1.70243436906 uw ah
-1.91089572037 uw ao
-2.32347547818 uw aw
-1.19865277005 uw ax
-3.20943622127 uw axh
-1.74586381725 uw axr
-2.54930860877 uw ay
-2.42336320902 uw b
-1.91089572037 uw bcl
-2.84462885647 uw ch
-2.37559081601 uw d
-1.9847257823 uw dcl
-1.79363621026 uw dh
-2.32347547818 uw dx
-1.56346013485 uw eh
-1.56346013485 uw el
-3.66544542726 uw em
-3.02268959405 uw en
-4.34728776385 uw eng
-2.80119940828 uw epi
-2.32347547818 uw er
-1.66334786569 uw ey
-1.59386074858 uw f
-2.68393989816 uw g
-2.32347547818 uw gcl
-2.32347547818 uw h#
-3.02268959405 uw hh
-1.91089572037 uw hv
-1.62860430714 uw ih
-1.43317179028 uw ix
-1.9847257823 uw iy
-2.75342701527 uw jh
-2.18015829915 uw k
-1.9847257823 uw kcl
-1.23773927342 uw l
-1.21168160451 uw m
-1.21168160451 uw n
-2.68393989816 uw ng
-2.54930860877 uw nx
-1.9847257823 uw ow
-2.18015829915 uw oy
-2.3495331471 uw p
-2.18015829915 uw pau
-1.53305952112 uw pcl
-1.22471043897 uw q
-1.91089572037 uw r
-1.53305952112 uw s
-2.07158467868 uw sh
-2.16278651988 uw t
-1.59386074858 uw tcl
-2.54930860877 uw th
-3.06177609742 uw uh
-3.0357184285 uw uw
-2.60576689142 uw ux
-0.98584847392 uw v
-1.29854050089 uw w
-2.7621129049 uw y
-1.9847257823 uw z
-2.32347547818 uw zh
-2.22358765117 ux aa
-2.13238580997 ux ae
-2.41467722321 ux ah
-2.41467722321 ux ao
-2.61010974007 ux aw
-2.05421280323 ux ax
-3.51778520724 ux axh
-2.75342691909 ux axr
-2.75342691909 ux ay
-2.731712195 ux b
-1.46791525266 ux bcl
-3.15297784245 ux ch
-2.68393980199 ux d
-1.10310788786 ux dcl
-1.53305942495 ux dh
-1.32459807363 ux dx
-2.41467722321 ux eh
-3.09217661498 ux el
-3.97379441324 ux em
-3.27023735256 ux en
-4.65563674983 ux eng
-3.45264103496 ux epi
-2.50153611959 ux er
-2.28004593382 ux ey
-1.71546310735 ux f
-2.99228888414 ux g
-1.86312323119 ux gcl
-1.5678029835 ux h#
-2.50153611959 ux hh
-1.65466187988 ux hv
-2.28004593382 ux ih
-1.71546310735 ux ix
-2.34084716129 ux iy
-3.06177600125 ux jh
-2.48850728513 ux k
-1.58951770759 ux kcl
-1.69809132807 ux l
-1.17693794979 ux m
-1.2029956187 ux n
-2.99228888414 ux ng
-1.99341157576 ux nx
-2.75342691909 ux ow
-3.58727232435 ux oy
-2.65788213308 ux p
-2.50153611959 ux pau
-1.40277108038 ux pcl
-1.46791525266 ux q
-2.0238121895 ux r
-1.16825206015 ux s
-1.7284919418 ux sh
-3.45264103496 ux t
-1.28116862544 ux tcl
-1.69809132807 ux th
-3.45264103496 ux uh
-3.45264103496 ux uw
-2.9141158774 ux ux
-1.71546310735 ux v
-1.65466187988 ux w
-1.65466187988 ux y
-0.903332426187 ux z
-2.05421280323 ux zh
-1.76323559653 v aa
-1.39842823173 v ae
-2.17147240952 v ah
-1.84575154809 v ao
-2.42336320902 v aw
-1.29854050089 v ax
-3.77836199256 v axh
-1.02493497729 v axr
-1.62426136232 v ay
-2.99228898031 v b
-2.01078345121 v bcl
-3.41355462776 v ch
-2.9445165873 v d
-1.62426136232 v dcl
-1.34196994908 v dh
-3.0574331526 v dx
-1.38539939727 v eh
-1.58951780377 v el
-3.12257732488 v em
-2.32347547818 v en
-4.91621353514 v eng
-2.20187302325 v epi
-1.38974234209 v er
-1.54174541076 v ey
-2.17147240952 v f
-3.25286566946 v g
-2.28004602999 v gcl
-1.94563927893 v h#
-1.84575154809 v hh
-2.20187302325 v hv
-1.35065583872 v ih
-1.13785154259 v ix
-1.38539939727 v iy
-3.32235278656 v jh
-2.74908407045 v k
-1.62426136232 v kcl
-1.70243436906 v l
-1.78929326544 v m
-1.53305952112 v n
-3.25286566946 v ng
-3.50041352414 v nx
-2.05855584422 v ow
-2.08027056832 v oy
-2.91845891839 v p
-2.37124787119 v pau
-1.81535093436 v pcl
-1.94563927893 v q
-1.21168160451 v r
-1.48528712811 v s
-3.60030125498 v sh
-2.73171229117 v t
-1.68071964497 v tcl
-3.60030125498 v th
-3.63070186871 v uh
-3.60030125498 v uw
-3.12257732488 v ux
-3.03137548368 v v
-1.91089572037 v w
-1.77626443098 v y
-1.66334786569 v z
-2.55799449841 v zh
-1.3332839535 w aa
-2.32347537224 w ae
-1.02927781617 w ah
-1.2637968364 w ao
-2.53193672355 w aw
-0.925047140512 w ax
-2.94885942618 w axh
-1.54174530481 w axr
-1.24642505712 w ay
-3.85219194854 w b
-3.90865023119 w bcl
-4.27345759599 w ch
-3.80441955553 w d
-3.58727231458 w dcl
-3.64807354205 w dh
-3.91733612083 w dx
-1.14653732628 w eh
-1.5156876359 w el
-5.09427416678 w em
-2.69262568186 w en
-5.77611650337 w eng
-4.2300281478 w epi
-1.32459806386 w er
-1.2637968364 w ey
-3.8435060589 w f
-4.11276863768 w g
-4.06933918949 w gcl
-3.62201587313 w h#
-4.21699931334 w hh
-4.32991587863 w hv
-1.04664959545 w ih
-0.855560023408 w ix
-1.02059192653 w iy
-4.18225575479 w jh
-3.60898703867 w k
-3.5699005353 w kcl
-3.54384286639 w l
-3.65241648686 w m
-3.64807354205 w n
-4.11276863768 w ng
-4.36031649237 w nx
-2.32347537224 w ow
-2.60576678548 w oy
-3.77836188662 w p
-4.23871403743 w pau
-3.76533305216 w pcl
-3.76099010734 w q
-3.51778519747 w r
-3.40052568736 w s
-4.06933918949 w sh
-3.5916152594 w t
-3.43092630109 w tcl
-4.31688704418 w th
-1.32894100868 w uh
-2.53193672355 w uw
-2.80119930233 w ux
-3.89127845191 w v
-3.8435060589 w w
-4.19094164442 w y
-3.62201587313 w z
-5.01610116004 w zh
-1.60688948029 y aa
-2.18450114122 y ae
-1.45922935644 y ah
-1.62860420438 y ao
-3.30063795971 y aw
-1.78060727305 y ax
-3.30063795971 y axh
-1.13785143983 y axr
-3.63070176596 y ay
-3.57858642813 y b
-3.63504471078 y bcl
-3.99985207558 y ch
-3.53081403512 y d
-3.31366679417 y dcl
-3.53949992476 y dh
-3.64373060042 y dx
-1.44620052198 y eh
-2.25833120314 y el
-4.82066864637 y em
-4.11711158569 y en
-5.50251098296 y eng
-3.95642262739 y epi
-1.05533548827 y er
-2.45376372 y ey
-3.56990053849 y f
-3.83916311727 y g
-3.79573366908 y gcl
-3.34841035272 y h#
-3.94339379293 y hh
-4.05631035822 y hv
-1.42448579789 y ih
-1.07270726755 y ix
-2.25833120314 y iy
-3.90865023438 y jh
-3.33538151826 y k
-3.29629501489 y kcl
-3.30063795971 y l
-2.82291402962 y m
-3.12257722213 y n
-3.83916311727 y ng
-4.08671097196 y nx
-1.93695328654 y ow
-4.43414655748 y oy
-3.50475636621 y p
-3.96510851702 y pau
-3.49172753175 y pcl
-3.48738458693 y q
-3.24417967706 y r
-3.12692016695 y s
-3.79573366908 y sh
-3.31800973899 y t
-3.15732078068 y tcl
-4.04328152377 y th
-1.93695328654 y uh
-1.1769379432 y uw
-0.338749593132 y ux
-3.6176729315 y v
-3.56990053849 y w
-3.91733612401 y y
-3.34841035272 y z
-4.74249563963 y zh
-1.81969387917 z aa
-1.91958161001 z ae
-1.79797915508 z ah
-2.11067118205 z ao
-3.02268959405 z aw
-1.25076810788 z ax
-2.3495331471 z axh
-1.72849203797 z axr
-2.21490185771 z ay
-3.22680800054 z b
-1.42882884546 z bcl
-3.64807364799 z ch
-3.39183990366 z d
-1.368027618 z dcl
-1.83706565845 z dh
-3.29195217283 z dx
-1.72414909316 z eh
-2.91411597357 z el
-2.63616750515 z em
-1.88049510664 z en
-5.15073255537 z eng
-1.23773927342 z epi
-1.96735400302 z er
-1.75020676207 z ey
-1.49397301775 z f
-3.48738468968 z g
-1.69809142424 z gcl
-0.94241902573 z h#
-1.57648896931 z hh
-2.19318713361 z hv
-1.39408528691 z ih
-0.968476694644 z ix
-1.55911719003 z iy
-3.55687180679 z jh
-2.98360309068 z k
-1.40277117655 z kcl
-1.98038283748 z l
-1.94998222375 z m
-1.75454970689 z n
-3.48738468968 z ng
-3.73493254437 z nx
-2.21490185771 z ow
-4.08236812989 z oy
-3.15297793862 z p
-1.51568774184 z pau
-1.81535093436 z pcl
-1.368027618 z q
-1.94998222375 z r
-2.47113560203 z s
-3.16600677307 z sh
-2.9662313114 z t
-1.42448590064 z tcl
-2.6926257878 z th
-3.02268959405 z uh
-2.82725707719 z uw
-2.43639204348 z ux
-2.32347547818 z v
-1.63729019678 z w
-2.47113560203 z y
-2.99663192513 z z
-4.39071721204 z zh
-2.45810676757 zh aa
-2.45376382275 zh ae
-2.45810676757 zh ah
-2.47547854685 zh ao
-2.94885953212 zh aw
-1.99775461675 zh ax
-3.26155155909 zh axh
-0.803444791521 zh axr
-2.52759388468 zh ay
-2.47547854685 zh b
-2.47547854685 zh bcl
-2.89674419429 zh ch
-2.42770615384 zh d
-1.35934172836 zh dcl
-1.77626443098 zh dh
-2.54062271913 zh dx
-2.29741780927 zh eh
-1.99775461675 zh el
-3.71756076509 zh em
-1.29854050089 zh en
-4.39940310168 zh eng
-2.47547854685 zh epi
-1.11179387367 zh er
-2.45810676757 zh ey
-2.47547854685 zh f
-2.73605523599 zh g
-2.6926257878 zh gcl
-2.24530247144 zh h#
-2.47547854685 zh hh
-2.47547854685 zh hv
-1.99775461675 zh ih
-0.820816570797 zh ix
-2.1454147406 zh iy
-2.8055423531 zh jh
-2.23227363698 zh k
-2.47547854685 zh kcl
-1.62860430714 zh l
-2.47547854685 zh m
-2.01946934085 zh n
-2.73605523599 zh ng
-2.98360309068 zh nx
-2.59273805696 zh ow
-3.3310386762 zh oy
-2.47547854685 zh p
-1.99775461675 zh pau
-1.99775461675 zh pcl
-2.38427670565 zh q
-1.77626443098 zh r
-1.77626443098 zh s
-2.6926257878 zh sh
-2.21490185771 zh t
-1.35934172836 zh tcl
-2.94017364249 zh th
-1.99775461675 zh uh
-1.24208221824 zh uw
-1.07705031512 zh ux
-2.51456505022 zh v
-1.52003068666 zh w
-1.35934172836 zh y
-2.24530247144 zh z
-3.63938775835 zh zh
